{"learner":{"attributes":{"best_iteration":"299","best_ntree_limit":"300","scikit_learn":"{\"n_estimators\": 300, \"objective\": \"reg:squarederror\", \"max_depth\": 6, \"max_leaves\": null, \"max_bin\": null, \"grow_policy\": null, \"learning_rate\": 0.05, \"verbosity\": null, \"booster\": null, \"tree_method\": null, \"gamma\": null, \"min_child_weight\": null, \"max_delta_step\": null, \"subsample\": 0.8, \"sampling_method\": null, \"colsample_bytree\": 0.8, \"colsample_bylevel\": null, \"colsample_bynode\": null, \"reg_alpha\": null, \"reg_lambda\": null, \"scale_pos_weight\": null, \"base_score\": null, \"missing\": NaN, \"num_parallel_tree\": null, \"random_state\": 42, \"n_jobs\": -1, \"monotone_constraints\": null, \"interaction_constraints\": null, \"importance_type\": null, \"gpu_id\": null, \"validate_parameters\": null, \"predictor\": null, \"enable_categorical\": false, \"feature_types\": null, \"max_cat_to_onehot\": null, \"max_cat_threshold\": null, \"eval_metric\": null, \"early_stopping_rounds\": null, \"callbacks\": null, \"_estimator_type\": \"regressor\"}"},"feature_names":["succ_idx","is_back_edge","dst_is_loop_header","src_numInstr","src_loopDepth","src_finalOpcode","src_numSuccessors","src_fracLoads","src_fracStores","src_fracAllocs","src_fracOtherMem","src_fracArith","src_fracIArith","src_fracFArith","src_fracCalls","src_fracCasts","src_numICmps","src_numPtrCmps","src_numBothPtrUnknown","src_numPtrCmpNull","src_numPtrCmpOtherConst","src_numFCmps","src_numCmpsZero","src_numCmpsNegOne","src_numCmpsOtherConst","src_numCmpsBothUnknown","src_fracPhiNodes","src_maxPhiIncoming","src_avgPhiIncomingEdges","src_numParentBlocks","src_avgValueUsage","src_maxValueUsage","src_numVarsUsed","src_entranceDistance","src_exitDistance","dst_numInstr","dst_loopDepth","dst_finalOpcode","dst_numSuccessors","dst_fracLoads","dst_fracStores","dst_fracAllocs","dst_fracOtherMem","dst_fracArith","dst_fracIArith","dst_fracFArith","dst_fracCalls","dst_fracCasts","dst_numICmps","dst_numPtrCmps","dst_numBothPtrUnknown","dst_numPtrCmpNull","dst_numPtrCmpOtherConst","dst_numFCmps","dst_numCmpsZero","dst_numCmpsNegOne","dst_numCmpsOtherConst","dst_numCmpsBothUnknown","dst_fracPhiNodes","dst_maxPhiIncoming","dst_avgPhiIncomingEdges","dst_numParentBlocks","dst_avgValueUsage","dst_maxValueUsage","dst_numVarsUsed","dst_entranceDistance","dst_exitDistance"],"feature_types":["int","int","int","int","int","int","int","float","float","float","float","float","float","float","float","float","int","int","int","int","int","int","int","int","int","int","float","int","float","int","float","int","int","int","int","int","int","int","int","float","float","float","float","float","float","float","float","float","int","int","int","int","int","int","int","int","int","int","float","int","float","int","float","int","int","int","int"],"gradient_booster":{"model":{"gbtree_model_param":{"num_parallel_tree":"1","num_trees":"300","size_leaf_vector":"0"},"tree_info":[0,0,0,0,0,0,0,0,0,0,0,0,0,0,0,0,0,0,0,0,0,0,0,0,0,0,0,0,0,0,0,0,0,0,0,0,0,0,0,0,0,0,0,0,0,0,0,0,0,0,0,0,0,0,0,0,0,0,0,0,0,0,0,0,0,0,0,0,0,0,0,0,0,0,0,0,0,0,0,0,0,0,0,0,0,0,0,0,0,0,0,0,0,0,0,0,0,0,0,0,0,0,0,0,0,0,0,0,0,0,0,0,0,0,0,0,0,0,0,0,0,0,0,0,0,0,0,0,0,0,0,0,0,0,0,0,0,0,0,0,0,0,0,0,0,0,0,0,0,0,0,0,0,0,0,0,0,0,0,0,0,0,0,0,0,0,0,0,0,0,0,0,0,0,0,0,0,0,0,0,0,0,0,0,0,0,0,0,0,0,0,0,0,0,0,0,0,0,0,0,0,0,0,0,0,0,0,0,0,0,0,0,0,0,0,0,0,0,0,0,0,0,0,0,0,0,0,0,0,0,0,0,0,0,0,0,0,0,0,0,0,0,0,0,0,0,0,0,0,0,0,0,0,0,0,0,0,0,0,0,0,0,0,0,0,0,0,0,0,0,0,0,0,0,0,0,0,0,0,0,0,0,0,0,0,0,0,0,0,0,0,0,0,0,0,0,0,0,0,0],"trees":[{"base_weights":[9.832838E-2,4.9999058E-1,-3.3286575E-2,-4.3344116E-3,-3.9269954E-1,-1.9684898E-2,2.584008E-1,-2.8405654E-1,-4.5778167E-1,2.182425E-2,-7.395107E-2,6.647417E-2,3.1100515E-1,-2.4639791E-1,-3.184741E-1,-4.1102296E-1,-4.828707E-1,-2.6885841E-2,7.6226555E-2,-4.5246344E-2,-1.23429716E-1,9.830466E-2,1.5504228E-2,2.6133585E-1,3.567505E-1,-2.4205561E-1,-4.554604E-1,-2.773112E-1,-3.410492E-1,-3.8583037E-1,-4.3020716E-1,-4.6527115E-1,-4.8849916E-1,4.0055832E-1,-3.7770286E-2,5.583405E-2,2.689212E-1,-3.7290864E-2,-3.150922E-1,-3.761311E-1,-4.412146E-2,9.32027E-2,4.3749917E-1,4.08335E-2,-1.09528944E-1,3.450811E-1,2.1054986E-1,3.699711E-1,2.4365373E-1,-2.1254268E-1,-2.7139634E-1,-4.729477E-1,-1.6672263E-1,-2.799649E-1,3.4929603E-1,-3.1495225E-1,-3.701773E-1,-3.3318E-1,-4.0039396E-1,-4.6729627E-1,1.1705226E-1,-4.8919407E-1,-3.279748E-1],"categories":[],"categories_nodes":[],"categories_segments":[],"categories_sizes":[],"default_left":[1,0,1,1,1,1,1,1,1,1,1,1,1,1,1,1,1,1,1,1,1,1,1,1,1,1,1,1,1,1,0,1,1,0,0,0,0,0,0,0,0,0,0,0,0,0,0,0,0,0,0,0,0,0,0,0,0,0,0,0,0,0,0],"id":0,"left_children":[1,-1,3,5,7,9,11,13,15,17,19,21,23,25,27,29,31,33,35,37,39,41,43,45,47,49,51,53,55,57,-1,59,61,-1,-1,-1,-1,-1,-1,-1,-1,-1,-1,-1,-1,-1,-1,-1,-1,-1,-1,-1,-1,-1,-1,-1,-1,-1,-1,-1,-1,-1,-1],"loss_changes":[1.1385445E4,0E0,1.6879829E3,6.0547217E2,8.53761E1,3.1949777E2,8.364636E1,5.7968445E0,8.671509E0,2.1296722E2,8.7302734E1,2.8928351E0,1.4684753E1,1.8587952E0,2.1031036E0,1.1133423E0,2.5964355E-1,1.9729012E2,1.4916945E2,8.35077E1,4.522955E2,1.8593731E0,2.1802008E0,1.320546E1,4.968109E0,1.7841568E0,1.3826561E-1,1.4995575E0,1.0411224E0,7.5146484E-1,0E0,1.4839783E0,2.5274658E-1,0E0,0E0,0E0,0E0,0E0,0E0,0E0,0E0,0E0,0E0,0E0,0E0,0E0,0E0,0E0,0E0,0E0,0E0,0E0,0E0,0E0,0E0,0E0,0E0,0E0,0E0,0E0,0E0,0E0,0E0],"parents":[2147483647,0,0,2,2,3,3,4,4,5,5,6,6,7,7,8,8,9,9,10,10,11,11,12,12,13,13,14,14,15,15,16,16,17,17,18,18,19,19,20,20,21,21,22,22,23,23,24,24,25,25,26,26,27,27,28,28,29,29,31,31,32,32],"right_children":[2,-1,4,6,8,10,12,14,16,18,20,22,24,26,28,30,32,34,36,38,40,42,44,46,48,50,52,54,56,58,-1,60,62,-1,-1,-1,-1,-1,-1,-1,-1,-1,-1,-1,-1,-1,-1,-1,-1,-1,-1,-1,-1,-1,-1,-1,-1,-1,-1,-1,-1,-1,-1],"split_conditions":[1.5E0,2.499953E-2,3.5E0,5E-1,7.5E0,1.5E0,5E-1,4.5E0,2.05E1,1.5E0,5E-1,8.5E0,4.672897E-3,4E0,1.5E0,1.05E1,4.45E1,1.5E0,4E0,5.5E0,5E-1,3.5E0,5E-1,5.5E0,1.05E1,1.5E0,1.3392855E-1,5.833334E-1,5.5E0,1.5E0,-2.1510359E-2,6.25E1,4.5E0,2.0027917E-2,-1.8885144E-3,2.7917025E-3,1.344606E-2,-1.8645432E-3,-1.575461E-2,-1.8806554E-2,-2.206073E-3,4.660135E-3,2.1874959E-2,2.041675E-3,-5.4764473E-3,1.7254055E-2,1.0527493E-2,1.8498555E-2,1.21826865E-2,-1.0627135E-2,-1.3569817E-2,-2.3647385E-2,-8.336131E-3,-1.3998245E-2,1.7464802E-2,-1.5747612E-2,-1.8508865E-2,-1.6659E-2,-2.0019699E-2,-2.3364814E-2,5.852613E-3,-2.4459703E-2,-1.6398741E-2],"split_indices":[6,0,6,2,6,61,4,6,6,38,4,35,12,37,0,6,6,37,5,37,36,5,18,35,34,0,58,43,6,0,0,61,36,0,0,0,0,0,0,0,0,0,0,0,0,0,0,0,0,0,0,0,0,0,0,0,0,0,0,0,0,0,0],"split_type":[0,0,0,0,0,0,0,0,0,0,0,0,0,0,0,0,0,0,0,0,0,0,0,0,0,0,0,0,0,0,0,0,0,0,0,0,0,0,0,0,0,0,0,0,0,0,0,0,0,0,0,0,0,0,0,0,0,0,0,0,0,0,0],"sum_hessian":[2.15368E5,5.3153E4,1.62215E5,1.50123E5,1.2092E4,1.41837E5,8.286E3,4.532E3,7.56E3,8.0365E4,6.1472E4,1.783E3,6.503E3,2.168E3,2.364E3,2.646E3,4.914E3,4.2401E4,3.7964E4,3.8904E4,2.2568E4,1.097E3,6.86E2,3.121E3,3.382E3,2.126E3,4.2E1,8.42E2,1.522E3,1.153E3,1.493E3,1.211E3,3.703E3,1.052E3,4.1349E4,3.4332E4,3.632E3,3.7791E4,1.113E3,5.39E3,1.7178E4,1.082E3,1.5E1,5.71E2,1.15E2,1.176E3,1.945E3,3.026E3,3.56E2,1.064E3,1.062E3,3.9E1,3E0,8.39E2,3E0,8.09E2,7.13E2,2.55E2,8.98E2,1.207E3,4E0,3.685E3,1.8E1],"tree_param":{"num_deleted":"0","num_feature":"67","num_nodes":"63","size_leaf_vector":"0"}},{"base_weights":[9.390438E-2,1.8769103E-1,-4.5652173E-2,2.83696E-1,2.6431179E-2,3.600928E-2,-3.430783E-1,3.6654335E-1,9.374172E-2,5.071337E-3,3.3668107E-1,2.1824345E-2,3.1403083E-1,-2.66733E-1,-4.1421464E-1,4.076511E-1,-6.547761E-2,-1.2289216E-2,1.5126999E-1,-1.3329685E-2,3.9376783E-1,4.844126E-1,1.9305305E-1,-1.8395031E-3,1.350894E-1,3.612867E-1,1.932951E-1,-3.891684E-1,-2.4480547E-1,-3.615828E-1,-4.506781E-1,6.891897E-2,4.3731394E-1,4.6142906E-1,-6.925951E-2,4.7131833E-1,-1.9617742E-2,3.8164052E-1,8.774494E-2,1.951306E-2,-1.3475958E-1,3.9720702E-1,1.329445E-1,7.833568E-2,3.4612027E-1,2.2285772E-3,-4.543648E-1,1.3673851E-1,-4.2635405E-1,3.7829298E-1,2.7750784E-1,9.591045E-2,3.387233E-1,-2.6345134E-1,-4.3085796E-1,-1.0508238E-1,-2.935889E-1,-3.3251506E-1,-4.6694687E-1,-4.1799694E-1,-4.617348E-1,4.7443637E-1,-3.457029E-2,1.9260168E-1,4.5264024E-1,-7.361399E-2,3.9820844E-1,-2.6538512E-2,3.9139915E-1,4.6551087E-1,3.5356972E-2,3.19681E-2,2.0200199E-1,-2.6942696E-2,9.241778E-2,-1.2846951E-1,-3.080424E-1,3.9803296E-1,-2.877627E-1,2.7836058E-1,-1.17094964E-1,4.1733935E-2,3.9973867E-1,4.37286E-1,2.4687679E-1,2.2530999E-2,-5.550517E-2,-8.917171E-2,-4.8487157E-1,1.4945811E-1,9.846666E-2,1.2523435E-1,-4.8568738E-1,3.7873992E-1,-2.5064301E-1,3.0711448E-1,-1.3103536E-1,1.9425817E-1,-8.57958E-2,3.4966108E-1,-2.0401925E-1,-2.3433055E-1,-3.3488828E-1,-3.2212472E-1,-4.8898575E-1,2.2748305E-1,-2.3770553E-1,-4.348866E-1,-2.4937765E-1,-2.4136868E-1,-3.556827E-1,-4.7820675E-1,-3.2754788E-1,-4.275491E-1,-3.3868694E-1,-4.621844E-1,1.3152137E-1],"categories":[],"categories_nodes":[],"categories_segments":[],"categories_sizes":[],"default_left":[1,1,1,1,1,1,1,1,1,1,1,1,1,1,1,1,1,1,1,1,1,0,1,1,1,1,1,1,1,1,1,1,1,0,1,0,1,1,1,1,1,1,1,1,1,1,1,1,1,1,1,1,1,1,1,1,1,1,1,1,1,0,0,0,0,0,0,0,0,0,0,0,0,0,0,0,0,0,0,0,0,0,0,0,0,0,0,0,0,0,0,0,0,0,0,0,0,0,0,0,0,0,0,0,0,0,0,0,0,0,0,0,0,0,0,0,0],"id":1,"left_children":[1,3,5,7,9,11,13,15,17,19,21,23,25,27,29,31,33,35,37,39,41,-1,43,45,47,49,51,53,55,57,59,61,63,-1,65,-1,67,69,71,73,75,77,79,81,83,85,87,89,91,93,95,97,99,101,103,105,107,109,111,113,115,-1,-1,-1,-1,-1,-1,-1,-1,-1,-1,-1,-1,-1,-1,-1,-1,-1,-1,-1,-1,-1,-1,-1,-1,-1,-1,-1,-1,-1,-1,-1,-1,-1,-1,-1,-1,-1,-1,-1,-1,-1,-1,-1,-1,-1,-1,-1,-1,-1,-1,-1,-1,-1,-1,-1,-1],"loss_changes":[2.8232334E3,1.997231E3,2.1057305E3,1.2725391E3,3.190366E2,2.6825272E2,1.0131763E2,9.999863E2,1.4980629E2,3.221714E2,6.570471E1,1.734711E2,1.8769592E1,2.409668E1,1.8387451E1,5.165654E2,9.782284E0,3.0626987E1,2.329592E2,1.7152245E2,1.7734985E0,0E0,2.7611488E1,9.855777E1,1.0414291E1,3.2745667E0,1.3152775E1,7.051056E0,5.2078796E1,1.1976074E1,1.8687744E0,1.7380049E2,1.7721582E2,0E0,9.920187E0,0E0,2.422038E1,9.992032E1,7.953365E1,1.1465732E2,9.940079E0,1.2511597E0,1.0506679E0,1.0582602E1,5.990135E0,6.2195896E1,5.2709503E0,5.4145966E0,1.1408348E0,6.48407E-1,4.926859E0,1.0006216E1,2.2856102E0,6.35067E-1,6.320923E0,8.7383705E1,3.5286743E1,6.477173E0,1.1838226E0,9.5596313E-1,1.1955566E0,0E0,0E0,0E0,0E0,0E0,0E0,0E0,0E0,0E0,0E0,0E0,0E0,0E0,0E0,0E0,0E0,0E0,0E0,0E0,0E0,0E0,0E0,0E0,0E0,0E0,0E0,0E0,0E0,0E0,0E0,0E0,0E0,0E0,0E0,0E0,0E0,0E0,0E0,0E0,0E0,0E0,0E0,0E0,0E0,0E0,0E0,0E0,0E0,0E0,0E0,0E0,0E0,0E0,0E0,0E0,0E0],"parents":[2147483647,0,0,1,1,2,2,3,3,4,4,5,5,6,6,7,7,8,8,9,9,10,10,11,11,12,12,13,13,14,14,15,15,16,16,17,17,18,18,19,19,20,20,22,22,23,23,24,24,25,25,26,26,27,27,28,28,29,29,30,30,31,31,32,32,34,34,36,36,37,37,38,38,39,39,40,40,41,41,42,42,43,43,44,44,45,45,46,46,47,47,48,48,49,49,50,50,51,51,52,52,53,53,54,54,55,55,56,56,57,57,58,58,59,59,60,60],"right_children":[2,4,6,8,10,12,14,16,18,20,22,24,26,28,30,32,34,36,38,40,42,-1,44,46,48,50,52,54,56,58,60,62,64,-1,66,-1,68,70,72,74,76,78,80,82,84,86,88,90,92,94,96,98,100,102,104,106,108,110,112,114,116,-1,-1,-1,-1,-1,-1,-1,-1,-1,-1,-1,-1,-1,-1,-1,-1,-1,-1,-1,-1,-1,-1,-1,-1,-1,-1,-1,-1,-1,-1,-1,-1,-1,-1,-1,-1,-1,-1,-1,-1,-1,-1,-1,-1,-1,-1,-1,-1,-1,-1,-1,-1,-1,-1,-1,-1],"split_conditions":[5E-1,9.2403847E-1,2.5E0,5E-1,4E0,5E-1,1.35E1,5E-1,3.5E0,5E-1,4E0,5E-1,5.1956814E-2,1.5E0,2.95E1,1.5E0,4.5E0,4.5E0,6.0555553E-1,5E-1,4E0,2.422063E-2,1.5E0,6.5E0,1.5E0,5E-1,1.5625E-2,4E0,1.5E0,4E0,5.55E1,2E0,1.5E0,2.3071453E-2,5E-1,2.3565916E-2,5E-1,8.5E0,5.409357E-2,8.550421E-1,4E0,6.6E1,5.5E0,1.5833335E0,2.9166666E-1,2.5E0,2.5E0,1.791444E-1,1E-1,1.5E0,5E-1,1.35E1,2.3E1,1.15E1,3.5E0,1.25E-1,2.5E0,1.5E0,5E-1,1.25E1,1E1,2.372182E-2,-1.7285146E-3,9.630084E-3,2.2632012E-2,-3.6806993E-3,1.9910423E-2,-1.3269256E-3,1.9569958E-2,2.3275545E-2,1.7678486E-3,1.5984051E-3,1.0100099E-2,-1.3471348E-3,4.6208887E-3,-6.4234757E-3,-1.5402121E-2,1.9901648E-2,-1.4388136E-2,1.3918029E-2,-5.854748E-3,2.086697E-3,1.9986933E-2,2.18643E-2,1.234384E-2,1.12655E-3,-2.7752586E-3,-4.4585853E-3,-2.4243578E-2,7.472906E-3,4.923333E-3,6.2617175E-3,-2.4284368E-2,1.8936997E-2,-1.2532151E-2,1.5355724E-2,-6.551768E-3,9.712908E-3,-4.28979E-3,1.7483054E-2,-1.0200962E-2,-1.1716528E-2,-1.6744414E-2,-1.6106237E-2,-2.4449287E-2,1.1374152E-2,-1.1885277E-2,-2.1744331E-2,-1.2468883E-2,-1.2068435E-2,-1.7784135E-2,-2.3910338E-2,-1.6377395E-2,-2.1377455E-2,-1.6934348E-2,-2.310922E-2,6.5760687E-3],"split_indices":[0,30,5,16,5,1,32,17,3,1,37,19,46,65,32,3,32,32,30,19,37,0,66,37,57,19,12,5,34,5,32,32,61,0,1,0,1,32,58,62,37,27,34,30,39,61,33,46,7,50,25,32,34,32,64,30,64,0,17,3,27,0,0,0,0,0,0,0,0,0,0,0,0,0,0,0,0,0,0,0,0,0,0,0,0,0,0,0,0,0,0,0,0,0,0,0,0,0,0,0,0,0,0,0,0,0,0,0,0,0,0,0,0,0,0,0,0],"split_type":[0,0,0,0,0,0,0,0,0,0,0,0,0,0,0,0,0,0,0,0,0,0,0,0,0,0,0,0,0,0,0,0,0,0,0,0,0,0,0,0,0,0,0,0,0,0,0,0,0,0,0,0,0,0,0,0,0,0,0,0,0,0,0,0,0,0,0,0,0,0,0,0,0,0,0,0,0,0,0,0,0,0,0,0,0,0,0,0,0,0,0,0,0,0,0,0,0,0,0,0,0,0,0,0,0,0,0,0,0,0,0,0,0,0,0,0,0],"sum_hessian":[2.15701E5,1.29005E5,8.6696E4,8.0863E4,4.8142E4,6.8021E4,1.8675E4,5.6305E4,2.4558E4,4.5042E4,3.1E3,6.472E4,3.301E3,9.01E3,9.665E3,5.1413E4,4.892E3,8.638E3,1.592E4,4.3007E4,2.035E3,1.527E3,1.573E3,5.3536E4,1.1184E4,2.371E3,9.3E2,1.366E3,7.644E3,3.96E3,5.705E3,4.14E3,4.7273E4,3.4E1,4.858E3,1.28E2,8.51E3,3.44E3,1.248E4,3.3852E4,9.155E3,2.008E3,2.7E1,9E2,6.73E2,5.306E4,4.76E2,1.1152E4,3.2E1,1.968E3,4.03E2,5.58E2,3.72E2,3.42E2,1.024E3,1.979E3,5.665E3,3.107E3,8.53E2,1.452E3,4.253E3,8.41E2,3.299E3,2.787E3,4.4486E4,4.814E3,4.4E1,8.37E3,1.4E2,2.769E3,6.71E2,8.387E3,4.093E3,2.0677E4,1.3175E4,8.836E3,3.19E2,2.006E3,2E0,1.7E1,1E1,8.09E2,9.1E1,3.49E2,3.24E2,3.9256E4,1.3804E4,3.7E1,4.39E2,8.368E3,2.784E3,3E0,2.9E1,1.967E3,1E0,3.76E2,2.7E1,3.62E2,1.96E2,3.65E2,7E0,2.46E2,9.6E1,3.59E2,6.65E2,5.64E2,1.415E3,1.348E3,4.317E3,6.32E2,2.475E3,7.87E2,6.6E1,1.292E3,1.6E2,4.25E3,3E0],"tree_param":{"num_deleted":"0","num_feature":"67","num_nodes":"117","size_leaf_vector":"0"}},{"base_weights":[8.916702E-2,1.778052E-1,-4.3415476E-2,2.6823616E-1,2.5583005E-2,3.436714E-2,-3.264163E-1,2.3591753E-2,3.2620728E-1,-5.17348E-3,3.5189238E-1,2.1036407E-2,2.9716253E-1,-2.7955067E-1,-4.2128298E-1,-1.5922494E-2,2.7345836E-1,3.6015168E-1,5.5611815E-2,-2.9947594E-2,3.2242018E-1,3.8725755E-1,2.928607E-1,-1.2446947E-3,1.2764221E-1,3.3134037E-1,1.807238E-1,-3.8120425E-1,-2.5825572E-1,-3.956056E-1,-4.389421E-1,-1.0521025E-1,1.2180229E-2,4.330293E-1,-4.029308E-1,3.8614547E-1,-5.6584645E-2,-2.013493E-2,1.044643E-1,-1.3057761E-3,-1.3009144E-1,3.837511E-1,-3.2527717E-3,3.9107653E-1,-5.5812158E-2,2.2890097E-1,3.5563102E-1,2.4723585E-3,-4.2272875E-1,1.2910093E-1,-3.8279578E-1,3.362604E-1,-2.8431721E-2,6.314678E-2,2.9258025E-1,-2.7811387E-1,-4.2739752E-1,-1.4289212E-1,-2.9375884E-1,-3.9028022E-1,-4.3883884E-1,-4.394578E-1,-2.74137E-1,-7.912684E-2,-2.8811797E-1,2.444625E-3,2.3375596E-1,4.6034285E-1,3.3074534E-1,-4.9663496E-1,2.6745286E-3,3.9871702E-1,-1.04510434E-1,-6.819187E-2,2.0208082E-1,-3.2549504E-2,2.8227767E-1,4.327812E-2,1.7488305E-1,4.504848E-3,-3.1457543E-1,-1.2702453E-1,-4.3893865E-1,4.605967E-1,2.7433935E-1,-4.0015855E-1,8.2891557E-4,3.9304322E-1,-1.01639755E-1,3.358756E-1,-3.8294703E-1,2.8175658E-1,-3.7561152E-2,3.6386582E-1,1.2869488E-1,2.1835698E-2,-5.2578848E-2,-4.046406E-2,-4.5852718E-1,1.0307935E-1,1.4263543E-1,1.2053807E-1,-4.390213E-1,3.5197648E-1,2.631754E-1,3.6684865E-1,-2.7868143E-1,-7.640728E-2,1.7924139E-1,3.174018E-1,-3.1684343E-2,-3.3035475E-1,-2.504187E-1,-3.5282767E-1,-4.659623E-1,1.7778502E-1,-2.4391662E-1,-4.1729167E-1,-2.6166877E-1,-3.9066106E-1,2.5202582E-2,-5.872187E-2,-3.0514604E-1],"categories":[],"categories_nodes":[],"categories_segments":[],"categories_sizes":[],"default_left":[1,1,1,1,1,1,1,1,1,1,1,1,1,1,1,1,1,1,1,1,1,1,1,1,1,1,1,1,1,1,1,1,1,1,1,1,1,1,1,1,1,1,1,1,1,1,1,1,1,1,1,1,1,1,1,1,1,1,1,1,0,0,1,0,0,0,0,0,0,0,0,0,0,0,0,0,0,0,0,0,0,0,0,0,0,0,0,0,0,0,0,0,0,0,0,0,0,0,0,0,0,0,0,0,0,0,0,0,0,0,0,0,0,0,0,0,0,0,0,0,0,0,0],"id":2,"left_children":[1,3,5,7,9,11,13,15,17,19,21,23,25,27,29,31,33,35,37,39,41,43,45,47,49,51,53,55,57,59,61,63,65,67,69,71,73,75,77,79,81,83,85,87,89,91,93,95,97,99,101,103,105,107,109,111,113,115,117,119,-1,-1,121,-1,-1,-1,-1,-1,-1,-1,-1,-1,-1,-1,-1,-1,-1,-1,-1,-1,-1,-1,-1,-1,-1,-1,-1,-1,-1,-1,-1,-1,-1,-1,-1,-1,-1,-1,-1,-1,-1,-1,-1,-1,-1,-1,-1,-1,-1,-1,-1,-1,-1,-1,-1,-1,-1,-1,-1,-1,-1,-1,-1],"loss_changes":[2.5318662E3,1.777407E3,1.9002222E3,1.1487593E3,4.8295035E2,2.372132E2,8.262659E1,1.5321808E2,6.014551E2,3.5692007E2,8.539978E0,1.5307841E2,1.2949524E1,2.687384E1,2.6158447E0,3.3624954E1,2.2888248E2,6.3030225E2,2.7015144E1,1.1727323E2,6.1760284E1,4.4026184E0,6.169586E0,8.351442E1,8.344833E0,4.4808044E0,9.766424E0,1.0148193E1,4.2164917E1,4.0823364E-1,1.885376E-1,1.5282112E1,2.19875E1,4.6390076E0,1.5394127E1,3.3786865E2,1.0272943E1,1.0757815E1,1.9114246E1,5.7875786E1,8.557175E0,2.1750793E1,7.9577386E-1,2.5274048E0,3.0757213E0,1.0911613E1,1.4182968E0,5.6328342E1,6.3583984E0,3.8981323E0,9.5852566E-1,2.7697144E0,3.5643919E0,5.911032E0,3.0766296E0,8.8664246E-1,4.111847E0,7.866905E1,3.1124573E1,3.6587524E-1,0E0,0E0,7.55986E-2,0E0,0E0,0E0,0E0,0E0,0E0,0E0,0E0,0E0,0E0,0E0,0E0,0E0,0E0,0E0,0E0,0E0,0E0,0E0,0E0,0E0,0E0,0E0,0E0,0E0,0E0,0E0,0E0,0E0,0E0,0E0,0E0,0E0,0E0,0E0,0E0,0E0,0E0,0E0,0E0,0E0,0E0,0E0,0E0,0E0,0E0,0E0,0E0,0E0,0E0,0E0,0E0,0E0,0E0,0E0,0E0,0E0,0E0,0E0,0E0],"parents":[2147483647,0,0,1,1,2,2,3,3,4,4,5,5,6,6,7,7,8,8,9,9,10,10,11,11,12,12,13,13,14,14,15,15,16,16,17,17,18,18,19,19,20,20,21,21,22,22,23,23,24,24,25,25,26,26,27,27,28,28,29,29,30,30,31,31,32,32,33,33,34,34,35,35,36,36,37,37,38,38,39,39,40,40,41,41,42,42,43,43,44,44,45,45,46,46,47,47,48,48,49,49,50,50,51,51,52,52,53,53,54,54,55,55,56,56,57,57,58,58,59,59,62,62],"right_children":[2,4,6,8,10,12,14,16,18,20,22,24,26,28,30,32,34,36,38,40,42,44,46,48,50,52,54,56,58,60,62,64,66,68,70,72,74,76,78,80,82,84,86,88,90,92,94,96,98,100,102,104,106,108,110,112,114,116,118,120,-1,-1,122,-1,-1,-1,-1,-1,-1,-1,-1,-1,-1,-1,-1,-1,-1,-1,-1,-1,-1,-1,-1,-1,-1,-1,-1,-1,-1,-1,-1,-1,-1,-1,-1,-1,-1,-1,-1,-1,-1,-1,-1,-1,-1,-1,-1,-1,-1,-1,-1,-1,-1,-1,-1,-1,-1,-1,-1,-1,-1,-1,-1],"split_conditions":[5E-1,9.281411E-1,2.5E0,1.5E0,5E-1,5E-1,4.5E0,4E0,5E-1,4E0,1.2599206E-1,5E-1,5E-1,1.5E0,1.55E1,2.5E0,6.5E0,5E-1,3.5E0,5E-1,6E0,5.55E1,5E-1,6.5E0,1.5E0,3.6038965E-1,1.909091E-1,4E0,1.5E0,2.05E1,4.5E0,4E0,2.35E1,3.875E-1,1.5E0,2.5E0,5E-1,5E-1,8.957219E-2,4E0,6.5E0,4E0,1.5E0,4.1E1,5E-1,5E-1,2.9634145E-1,2.5E0,5.833334E-1,1.5E0,7.142855E-2,5.1956814E-2,5E-1,2.5E0,5E-1,2.5E0,3.5E0,2.9166666E-1,2.5E0,1.5E0,-2.1941943E-2,-2.1972891E-2,6.75E1,-3.956342E-3,-1.4405899E-2,1.2223124E-4,1.1687798E-2,2.3017144E-2,1.6537268E-2,-2.4831748E-2,1.3372644E-4,1.9935852E-2,-5.225522E-3,-3.4095936E-3,1.0104041E-2,-1.6274753E-3,1.41138835E-2,2.163906E-3,8.744153E-3,2.2524239E-4,-1.5728772E-2,-6.3512265E-3,-2.1946933E-2,2.3029836E-2,1.3716968E-2,-2.0007929E-2,4.144578E-5,1.9652162E-2,-5.081988E-3,1.679378E-2,-1.9147351E-2,1.4087829E-2,-1.8780576E-3,1.8193292E-2,6.4347438E-3,1.0917849E-3,-2.6289425E-3,-2.023203E-3,-2.2926359E-2,5.1539675E-3,7.1317717E-3,6.0269036E-3,-2.1951064E-2,1.7598825E-2,1.315877E-2,1.8342433E-2,-1.3934071E-2,-3.8203641E-3,8.96207E-3,1.587009E-2,-1.5842172E-3,-1.6517738E-2,-1.2520934E-2,-1.7641384E-2,-2.3298115E-2,8.889251E-3,-1.2195831E-2,-2.0864584E-2,-1.3083438E-2,-1.9533053E-2,1.2601292E-3,-2.9360936E-3,-1.5257302E-2],"split_indices":[0,30,5,61,2,1,0,5,22,5,7,19,19,65,0,35,37,17,3,19,37,65,1,37,57,8,58,5,34,61,36,37,64,7,35,5,2,2,58,37,37,37,35,34,24,24,11,61,30,38,7,14,50,65,22,35,64,30,64,50,0,0,0,0,0,0,0,0,0,0,0,0,0,0,0,0,0,0,0,0,0,0,0,0,0,0,0,0,0,0,0,0,0,0,0,0,0,0,0,0,0,0,0,0,0,0,0,0,0,0,0,0,0,0,0,0,0,0,0,0,0,0,0],"split_type":[0,0,0,0,0,0,0,0,0,0,0,0,0,0,0,0,0,0,0,0,0,0,0,0,0,0,0,0,0,0,0,0,0,0,0,0,0,0,0,0,0,0,0,0,0,0,0,0,0,0,0,0,0,0,0,0,0,0,0,0,0,0,0,0,0,0,0,0,0,0,0,0,0,0,0,0,0,0,0,0,0,0,0,0,0,0,0,0,0,0,0,0,0,0,0,0,0,0,0,0,0,0,0,0,0,0,0,0,0,0,0,0,0,0,0,0,0,0,0,0,0,0,0],"sum_hessian":[2.15442E5,1.29119E5,8.6323E4,8.0999E4,4.812E4,6.7713E4,1.861E4,1.5517E4,6.5482E4,4.3976E4,4.144E3,6.4445E4,3.268E3,1.2459E4,6.151E3,1.3399E4,2.118E3,5.8183E4,7.299E3,4.0885E4,3.091E3,2.588E3,1.556E3,5.3305E4,1.114E4,2.525E3,7.43E2,2.155E3,1.0304E4,2.516E3,3.635E3,3.207E3,1.0192E4,1.714E3,4.04E2,5.4767E4,3.416E3,2.862E3,4.437E3,3.1793E4,9.092E3,2.601E3,4.9E2,2.566E3,2.2E1,7.73E2,7.83E2,5.284E4,4.65E2,1.1109E4,3.1E1,2.491E3,3.4E1,3.63E2,3.8E2,6.69E2,1.486E3,2.426E3,7.878E3,2.249E3,2.67E2,3.622E3,1.3E1,2.808E3,3.99E2,9.764E3,4.28E2,1.35E3,3.64E2,3.28E2,7.6E1,5.3399E4,1.368E3,3.27E3,1.46E2,2.75E3,1.12E2,2.375E3,2.062E3,3.1215E4,5.78E2,9.004E3,8.8E1,1.526E3,1.075E3,4E0,4.86E2,2.556E3,1E1,1E1,1.2E1,6.45E2,1.28E2,7.55E2,2.8E1,3.9091E4,1.3749E4,4E1,4.25E2,3.804E3,7.305E3,3E0,2.8E1,2.047E3,4.44E2,1.3E1,2.1E1,1.65E2,1.98E2,3.53E2,2.7E1,2.28E2,4.41E2,5.1E2,9.76E2,5.81E2,1.845E3,1.622E3,6.256E3,2.247E3,2E0,2E0,1.1E1],"tree_param":{"num_deleted":"0","num_feature":"67","num_nodes":"123","size_leaf_vector":"0"}},{"base_weights":[8.4338196E-2,4.3622798E-1,-3.029775E-2,4.3345743E-1,4.4928148E-1,-5.188946E-3,-3.4263366E-1,4.3289447E-1,4.5780027E-1,4.4798034E-1,4.7585663E-1,-1.7474744E-2,3.107873E-1,-2.4443114E-1,-3.9211926E-1,4.326863E-1,4.734432E-1,4.4582117E-1,4.6087003E-1,1.9714873E-2,-6.412582E-2,3.3279184E-1,1.718392E-1,-2.1931946E-1,-2.7207175E-1,-3.4552154E-1,-4.1311246E-1,4.419038E-1,4.5511076E-1,-2.4726318E-2,6.91299E-2,-3.5899114E-2,-1.1344507E-1,3.3612627E-1,9.94843E-2,2.0003872E-1,-1.5477197E-1,-2.4653134E-1,-1.7827669E-1,-2.681152E-1,-3.8500583E-1,-3.3095193E-1,-3.6014152E-1,-3.9356056E-1,-4.192908E-1,3.480026E-1,-3.4188543E-2,1.0630172E-1,4.098635E-2,-1.0865847E-1,-1.1149941E-2,-3.5529575E-1,-4.0672638E-2,3.0960947E-1,3.6405736E-1,1.8749097E-1,-3.922181E-2,-2.4987265E-2,2.4119793E-1,-4.3189073E-1,-2.228018E-2,-2.2286123E-1,-4.3922725E-1,-8.424961E-2,-2.0221266E-1,-2.5459152E-1,-2.939523E-1,-3.9313012E-1,-1.6689014E-1,-3.31531E-1,2.0136535E-1,-3.6641535E-1,-3.1550315E-1,-3.942638E-1,-2.0251156E-1,-4.196777E-1,-2.994262E-1],"categories":[],"categories_nodes":[],"categories_segments":[],"categories_sizes":[],"default_left":[1,1,1,1,1,1,1,1,0,1,0,1,1,1,1,0,0,1,0,1,1,1,1,1,1,1,1,0,0,1,1,1,1,1,1,1,1,1,1,1,1,1,1,1,1,0,0,0,0,0,0,0,0,0,0,0,0,0,0,0,0,0,0,0,0,0,0,0,0,0,0,0,0,0,0,0,0],"id":3,"left_children":[1,3,5,7,9,11,13,15,-1,17,-1,19,21,23,25,-1,-1,27,-1,29,31,33,35,37,39,41,43,-1,-1,45,47,49,51,53,55,57,59,61,63,65,67,69,71,73,75,-1,-1,-1,-1,-1,-1,-1,-1,-1,-1,-1,-1,-1,-1,-1,-1,-1,-1,-1,-1,-1,-1,-1,-1,-1,-1,-1,-1,-1,-1,-1,-1],"loss_changes":[8.705378E3,1.7226562E0,1.2765576E3,4.013672E-1,1.0681152E-1,5.848939E2,5.8763794E1,1.5625E-1,0E0,4.0649414E-2,0E0,2.5161551E2,1.7184021E1,2.759079E0,7.734009E0,0E0,0E0,7.556152E-2,0E0,1.7721959E2,8.95524E1,3.7528076E0,7.150503E0,2.3382874E0,7.586975E-1,4.1482544E-1,5.048828E-1,0E0,0E0,1.4986044E2,3.996997E1,7.367761E1,4.1210858E2,3.440918E0,8.6184824E-1,6.6004944E0,2.2667668E0,5.740364E0,1.9050026E0,5.7751465E-1,4.6028137E-2,4.5762634E-1,2.3165894E-1,1.0127258E-1,6.90918E-2,0E0,0E0,0E0,0E0,0E0,0E0,0E0,0E0,0E0,0E0,0E0,0E0,0E0,0E0,0E0,0E0,0E0,0E0,0E0,0E0,0E0,0E0,0E0,0E0,0E0,0E0,0E0,0E0,0E0,0E0,0E0,0E0],"parents":[2147483647,0,0,1,1,2,2,3,3,4,4,5,5,6,6,7,7,9,9,11,11,12,12,13,13,14,14,17,17,19,19,20,20,21,21,22,22,23,23,24,24,25,25,26,26,29,29,30,30,31,31,32,32,33,33,34,34,35,35,36,36,37,37,38,38,39,39,40,40,41,41,42,42,43,43,44,44],"right_children":[2,4,6,8,10,12,14,16,-1,18,-1,20,22,24,26,-1,-1,28,-1,30,32,34,36,38,40,42,44,-1,-1,46,48,50,52,54,56,58,60,62,64,66,68,70,72,74,76,-1,-1,-1,-1,-1,-1,-1,-1,-1,-1,-1,-1,-1,-1,-1,-1,-1,-1,-1,-1,-1,-1,-1,-1,-1,-1,-1,-1,-1,-1,-1,-1],"split_conditions":[1.5E0,1.5E0,3.5E0,5E-1,5E-1,5E-1,6.5E0,5E-1,2.2890015E-2,5E-1,2.3792831E-2,1.5E0,5E-1,4.5E0,1.55E1,2.1634316E-2,2.3672162E-2,2.5E0,2.3043502E-2,1.5E0,5E-1,4E0,5E-1,5E-1,4E0,9.5E0,3.45E1,2.209519E-2,2.2755539E-2,1.5E0,5E-1,4.5E0,5E-1,2.1240601E-1,1.6025645E-1,1.1437909E-1,7.5E0,5E-1,2.5E0,3.5E0,3.5E0,3.15E1,5E-1,6.5E0,4.5E0,1.740013E-2,-1.7094271E-3,5.315086E-3,2.0493176E-3,-5.432924E-3,-5.574971E-4,-1.7764788E-2,-2.033632E-3,1.5480474E-2,1.820287E-2,9.374549E-3,-1.9610904E-3,-1.2493633E-3,1.2059896E-2,-2.1594537E-2,-1.1140091E-3,-1.1143061E-2,-2.1961363E-2,-4.2124805E-3,-1.0110633E-2,-1.2729577E-2,-1.4697614E-2,-1.9656507E-2,-8.344508E-3,-1.6576549E-2,1.0068268E-2,-1.8320767E-2,-1.5775157E-2,-1.9713191E-2,-1.0125578E-2,-2.0983886E-2,-1.497131E-2],"split_indices":[6,31,6,22,17,1,6,17,0,16,0,61,19,6,6,0,0,31,0,38,4,37,22,36,37,6,6,0,0,37,16,64,36,58,15,58,3,4,35,61,34,38,54,38,36,0,0,0,0,0,0,0,0,0,0,0,0,0,0,0,0,0,0,0,0,0,0,0,0,0,0,0,0,0,0,0,0],"split_type":[0,0,0,0,0,0,0,0,0,0,0,0,0,0,0,0,0,0,0,0,0,0,0,0,0,0,0,0,0,0,0,0,0,0,0,0,0,0,0,0,0,0,0,0,0,0,0,0,0,0,0,0,0,0,0,0,0,0,0,0,0,0,0,0,0,0,0,0,0,0,0,0,0,0,0,0,0],"sum_hessian":[2.15803E5,5.3027E4,1.62776E5,4.3771E4,9.256E3,1.50665E5,1.2111E4,4.28E4,9.71E2,8.841E3,4.15E2,1.45027E5,5.638E3,4.06E3,8.051E3,4.2593E4,2.07E2,7.603E3,1.238E3,8.0697E4,6.433E4,4.866E3,7.72E2,2.132E3,1.928E3,2.506E3,5.545E3,5.382E3,2.221E3,4.2487E4,3.821E4,4.0915E4,2.3415E4,4.797E3,6.9E1,7.11E2,6.1E1,1.279E3,8.53E2,1.866E3,6.2E1,1.267E3,1.239E3,1.347E3,4.198E3,1.051E3,4.1436E4,1.6463E4,2.1747E4,1.0384E4,3.0531E4,5.415E3,1.8E4,2.467E3,2.33E3,4.2E1,2.7E1,1.1E2,6.01E2,1.9E1,4.2E1,1.141E3,1.38E2,1.74E2,6.79E2,1.232E3,6.34E2,5.9E1,3E0,1.266E3,1E0,1.08E3,1.59E2,1.341E3,6E0,4.182E3,1.6E1],"tree_param":{"num_deleted":"0","num_feature":"67","num_nodes":"77","size_leaf_vector":"0"}},{"base_weights":[8.0418594E-2,4.1442248E-1,-2.8625624E-2,4.118085E-1,4.4351065E-1,-4.8598414E-3,-3.2533705E-1,4.1158846E-1,4.5081005E-1,4.508563E-1,4.297881E-1,-1.6613008E-2,2.9422775E-1,-2.4058244E-1,-3.7619838E-1,4.10727E-1,4.1902137E-1,1.7924905E-2,-6.0069382E-2,3.1398913E-1,1.6890585E-1,-2.0635471E-1,-2.7146906E-1,-3.400028E-1,-3.9549834E-1,4.1091204E-1,4.297056E-1,2.5466666E-2,-2.527942E-1,-3.3174578E-2,-1.0670144E-1,3.1755808E-1,8.543759E-2,2.0454161E-1,-8.63872E-2,-2.0246047E-1,-3.9264527E-1,-2.744891E-1,-1.4373304E-1,-3.2220426E-1,-3.5362425E-1,-3.8535362E-1,-4.007492E-1,-1.1737062E-2,6.4632066E-2,-2.0757842E-1,-4.3674263E-1,-1.04094535E-1,-8.993895E-3,-2.0724863E-1,-6.8268575E-2,3.2032946E-1,6.584626E-2,1.2129868E-1,-2.3902668E-1,2.3638485E-1,-4.913875E-2,-4.5747906E-1,-7.4112153E-4,-2.0499872E-1,-6.598082E-2,-4.1922075E-1,-1.5889303E-1,-2.712086E-1,-3.7179434E-1,-1.9111003E-1,3.8720962E-1,-3.2280982E-1,1.8708843E-1,-3.8616917E-1,2.049507E-1],"categories":[],"categories_nodes":[],"categories_segments":[],"categories_sizes":[],"default_left":[1,1,1,1,1,1,1,1,0,0,0,1,1,1,1,0,1,1,1,1,1,1,1,1,1,0,0,1,1,1,1,1,1,1,1,1,1,1,1,1,0,1,0,0,0,0,0,0,0,0,0,0,0,0,0,0,0,0,0,0,0,0,0,0,0,0,0,0,0,0,0],"id":4,"left_children":[1,3,5,7,9,11,13,15,-1,-1,-1,17,19,21,23,-1,25,27,29,31,33,35,37,39,41,-1,-1,43,45,47,49,51,53,55,57,59,61,63,65,67,-1,69,-1,-1,-1,-1,-1,-1,-1,-1,-1,-1,-1,-1,-1,-1,-1,-1,-1,-1,-1,-1,-1,-1,-1,-1,-1,-1,-1,-1,-1],"loss_changes":[7.860689E3,3.8554688E0,1.1473467E3,2.3242188E-1,2.4639893E-1,5.2954913E2,5.1922974E1,1.3867188E-1,0E0,0E0,0E0,2.1755246E2,1.4053284E1,4.7308655E0,5.13208E0,0E0,2.555542E-1,1.648981E2,8.049724E1,3.9852905E0,7.0955715E0,1.4816971E0,8.7750244E-1,5.23407E-1,1.07177734E-1,0E0,0E0,1.1449083E2,1.8116058E1,6.9812355E1,9.071228E1,3.3573303E0,9.249381E-1,5.5288925E0,3.0507872E0,7.174225E-1,2.0050812E-1,6.400604E-1,1.5078039E0,4.1536713E-1,0E0,8.9801025E-1,0E0,0E0,0E0,0E0,0E0,0E0,0E0,0E0,0E0,0E0,0E0,0E0,0E0,0E0,0E0,0E0,0E0,0E0,0E0,0E0,0E0,0E0,0E0,0E0,0E0,0E0,0E0,0E0,0E0],"parents":[2147483647,0,0,1,1,2,2,3,3,4,4,5,5,6,6,7,7,11,11,12,12,13,13,14,14,16,16,17,17,18,18,19,19,20,20,21,21,22,22,23,23,24,24,27,27,28,28,29,29,30,30,31,31,32,32,33,33,34,34,35,35,36,36,37,37,38,38,39,39,41,41],"right_children":[2,4,6,8,10,12,14,16,-1,-1,-1,18,20,22,24,-1,26,28,30,32,34,36,38,40,42,-1,-1,44,46,48,50,52,54,56,58,60,62,64,66,68,-1,70,-1,-1,-1,-1,-1,-1,-1,-1,-1,-1,-1,-1,-1,-1,-1,-1,-1,-1,-1,-1,-1,-1,-1,-1,-1,-1,-1,-1,-1],"split_conditions":[1.5E0,9.2724866E-1,3.5E0,5E-1,5E-1,5E-1,7.5E0,5E-1,2.2540502E-2,2.2542816E-2,2.1489406E-2,1.5E0,5E-1,4.5E0,2.05E1,2.053635E-2,6.0555553E-1,5.5E0,5E-1,4E0,5E-1,4E0,3.0952382E-1,1.05E1,5.6E1,2.0545602E-2,2.148528E-2,1.5E0,3.5E0,4.5E0,2.5E0,3.6038965E-1,3.5714284E-2,1.05E1,7.5E0,3.8095236E-1,1.3392855E-1,4E0,2.0833334E-1,5E-1,-1.7681213E-2,8.4E1,-2.0037461E-2,-5.868531E-4,3.2316034E-3,-1.0378921E-2,-2.1837132E-2,-5.204727E-3,-4.4969475E-4,-1.0362431E-2,-3.4134288E-3,1.6016474E-2,3.2923128E-3,6.064934E-3,-1.1951334E-2,1.18192425E-2,-2.4569377E-3,-2.2873953E-2,-3.7056077E-5,-1.0249936E-2,-3.2990412E-3,-2.0961037E-2,-7.944652E-3,-1.3560431E-2,-1.8589718E-2,-9.555502E-3,1.936048E-2,-1.614049E-2,9.354422E-3,-1.9308459E-2,1.0247535E-2],"split_indices":[6,30,6,17,2,1,6,16,0,0,0,61,19,6,6,0,30,37,4,37,16,37,44,6,6,0,0,38,31,64,66,8,8,35,3,44,58,37,39,1,0,61,0,0,0,0,0,0,0,0,0,0,0,0,0,0,0,0,0,0,0,0,0,0,0,0,0,0,0,0,0],"split_type":[0,0,0,0,0,0,0,0,0,0,0,0,0,0,0,0,0,0,0,0,0,0,0,0,0,0,0,0,0,0,0,0,0,0,0,0,0,0,0,0,0,0,0,0,0,0,0,0,0,0,0,0,0,0,0,0,0,0,0,0,0,0,0,0,0,0,0,0,0,0,0],"sum_hessian":[2.15826E5,5.3119E4,1.62707E5,4.8753E4,4.366E3,1.50642E5,1.2065E4,4.8491E4,2.62E2,2.823E3,1.543E3,1.44947E5,5.695E3,4.527E3,7.538E3,4.3505E4,4.986E3,8.0761E4,6.4186E4,4.918E3,7.77E2,2.151E3,2.376E3,2.628E3,4.91E3,2.857E3,2.129E3,7.8573E4,2.188E3,4.0709E4,2.3477E4,4.842E3,7.6E1,6.82E2,9.5E1,2.109E3,4.2E1,2.32E3,5.6E1,1.15E3,1.478E3,1.7E3,3.21E3,4.0296E4,3.8277E4,1.758E3,4.3E2,1.035E4,3.0359E4,6.491E3,1.6986E4,4.789E3,5.3E1,6.9E1,7E0,6.06E2,7.6E1,1.7E1,7.8E1,2.07E3,3.9E1,3.7E1,5E0,2.248E3,7.2E1,5.2E1,4E0,1.149E3,1E0,1.698E3,2E0],"tree_param":{"num_deleted":"0","num_feature":"67","num_nodes":"71","size_leaf_vector":"0"}},{"base_weights":[7.6584555E-2,3.9370197E-1,-2.6787864E-2,3.9125118E-1,4.2130786E-1,-9.3466276E-4,-2.7199683E-1,3.9073515E-1,4.1402364E-1,4.2827383E-1,4.0822777E-1,-1.3075822E-2,2.0169534E-1,-1.866166E-1,-3.5281473E-1,3.9055955E-1,4.2760742E-1,-8.5578576E-2,5.9906184E-3,5.2607127E-2,2.4267223E-1,-1.4924122E-1,-2.1896484E-1,-3.0845237E-1,-3.7118503E-1,-7.196418E-2,-2.845691E-1,1.4319379E-2,-1.0365443E-1,2.5903912E-2,1.3459995E-1,2.580485E-1,1.4404789E-1,-9.1392644E-2,-1.7859988E-1,-2.1488218E-1,-3.743609E-1,-2.7343985E-1,-3.183769E-1,-3.521238E-1,-3.7814966E-1,-8.781902E-2,2.4164424E-3,-3.8956323E-1,-4.8477773E-2,2.7272899E-2,-5.6900732E-2,-6.48008E-2,-3.0580318E-1,8.245255E-2,-9.38529E-3,1.6022989E-1,3.5531283E-3,2.7307644E-1,1.9933033E-1,-7.275212E-2,1.8235277E-1,-1.5810251E-1,5.9186056E-2,-1.4843579E-1,-2.5067922E-1,-1.9250299E-1,-2.4066296E-1,-4.282035E-1,-2.9365462E-1,-3.041957E-1,-2.030259E-1,-3.1881458E-1,5.2117843E-2,-3.786453E-1,-2.3671754E-1],"categories":[],"categories_nodes":[],"categories_segments":[],"categories_sizes":[],"default_left":[1,1,1,1,1,1,1,1,0,0,0,1,1,1,1,0,0,1,1,1,1,1,1,1,1,1,1,1,1,1,1,1,1,1,1,1,1,1,1,0,1,0,0,0,0,0,0,0,0,0,0,0,0,0,0,0,0,0,0,0,0,0,0,0,0,0,0,0,0,0,0],"id":5,"left_children":[1,3,5,7,9,11,13,15,-1,-1,-1,17,19,21,23,-1,-1,25,27,29,31,33,35,37,39,41,43,45,47,49,51,53,55,57,59,61,63,65,67,-1,69,-1,-1,-1,-1,-1,-1,-1,-1,-1,-1,-1,-1,-1,-1,-1,-1,-1,-1,-1,-1,-1,-1,-1,-1,-1,-1,-1,-1,-1,-1],"loss_changes":[7.0598013E3,3.4179688E0,1.0296384E3,4.0966797E-1,2.1728516E-1,3.6146948E2,1.0682593E2,1.4111328E-1,0E0,0E0,0E0,1.9162871E2,5.073001E1,9.077332E0,6.369995E0,0E0,0E0,7.8176025E1,1.00235115E2,3.9200468E0,9.842651E0,5.9262314E0,2.4807587E0,7.2465515E-1,6.131592E-1,3.1861145E1,4.5789703E1,9.4112854E1,6.084249E1,2.7007613E0,1.4772673E0,4.9179993E0,7.3295307E0,1.1862559E1,5.0069427E0,2.2245636E0,3.1749153E-1,1.0708733E0,3.1077576E-1,0E0,1.9805908E-1,0E0,0E0,0E0,0E0,0E0,0E0,0E0,0E0,0E0,0E0,0E0,0E0,0E0,0E0,0E0,0E0,0E0,0E0,0E0,0E0,0E0,0E0,0E0,0E0,0E0,0E0,0E0,0E0,0E0,0E0],"parents":[2147483647,0,0,1,1,2,2,3,3,4,4,5,5,6,6,7,7,11,11,12,12,13,13,14,14,17,17,18,18,19,19,20,20,21,21,22,22,23,23,24,24,25,25,26,26,27,27,28,28,29,29,30,30,31,31,32,32,33,33,34,34,35,35,36,36,37,37,38,38,40,40],"right_children":[2,4,6,8,10,12,14,16,-1,-1,-1,18,20,22,24,-1,-1,26,28,30,32,34,36,38,40,42,44,46,48,50,52,54,56,58,60,62,64,66,68,-1,70,-1,-1,-1,-1,-1,-1,-1,-1,-1,-1,-1,-1,-1,-1,-1,-1,-1,-1,-1,-1,-1,-1,-1,-1,-1,-1,-1,-1,-1,-1],"split_conditions":[1.5E0,9.245014E-1,2.5E0,5E-1,5E-1,5E-1,6.5E0,5E-1,2.0701183E-2,2.1413691E-2,2.0411389E-2,4.5E0,5E-1,3.5E0,1.45E1,1.9527977E-2,2.138037E-2,6.5E0,3.6038965E-1,2.9285717E-1,5E-1,5E-1,4E0,1.5E0,3.55E1,5E-1,1.5476191E-1,2.5E0,4E0,3.5E0,5E-1,7.340067E-2,1.1437909E-1,1.7424245E-1,1.7424245E-1,4.5E0,5E-1,8.2142854E-1,1.5E0,-1.760619E-2,4.5E0,-4.390951E-3,1.2082212E-4,-1.9478163E-2,-2.4238888E-3,1.363645E-3,-2.8450366E-3,-3.24004E-3,-1.5290159E-2,4.1226274E-3,-4.692645E-4,8.011495E-3,1.7765642E-4,1.3653822E-2,9.966517E-3,-3.637606E-3,9.117639E-3,-7.905126E-3,2.9593029E-3,-7.421789E-3,-1.2533962E-2,-9.62515E-3,-1.2033149E-2,-2.1410175E-2,-1.4682732E-2,-1.5209786E-2,-1.0151296E-2,-1.594073E-2,2.6058923E-3,-1.8932266E-2,-1.1835877E-2],"split_indices":[6,30,6,22,2,2,6,19,0,0,0,64,4,6,6,0,0,37,46,58,19,0,37,0,6,36,14,59,37,65,24,40,58,26,26,6,0,62,50,0,36,0,0,0,0,0,0,0,0,0,0,0,0,0,0,0,0,0,0,0,0,0,0,0,0,0,0,0,0,0,0],"split_type":[0,0,0,0,0,0,0,0,0,0,0,0,0,0,0,0,0,0,0,0,0,0,0,0,0,0,0,0,0,0,0,0,0,0,0,0,0,0,0,0,0,0,0,0,0,0,0,0,0,0,0,0,0,0,0,0,0,0,0,0,0,0,0,0,0,0,0,0,0,0,0],"sum_hessian":[2.1536E5,5.2943E4,1.62417E5,4.864E4,4.303E3,1.46927E5,1.549E4,4.758E4,1.06E3,2.787E3,1.516E3,1.38622E5,8.305E3,7.534E3,7.956E3,4.7366E4,2.14E2,2.8863E4,1.09759E5,1.791E3,6.514E3,3.498E3,4.036E3,2.335E3,5.621E3,2.7016E4,1.847E3,1.02011E5,7.748E3,1.352E3,4.39E2,5.634E3,8.8E2,1.179E3,2.319E3,3.935E3,1.01E2,5.22E2,1.813E3,1.518E3,4.103E3,2.2269E4,4.747E3,1.278E3,5.69E2,8.6313E4,1.5698E4,6.5E3,1.248E3,5.19E2,8.33E2,3.67E2,7.2E1,4.483E3,1.151E3,1.32E2,7.48E2,8.17E2,3.62E2,1.637E3,6.82E2,2.111E3,1.824E3,5.8E1,4.3E1,3.61E2,1.61E2,1.811E3,2E0,4.087E3,1.6E1],"tree_param":{"num_deleted":"0","num_feature":"67","num_nodes":"71","size_leaf_vector":"0"}},{"base_weights":[7.224304E-2,3.7400928E-1,-2.5919057E-2,3.7163958E-1,3.8520023E-1,-1.1011995E-3,-2.5858462E-1,3.7116945E-1,3.9285424E-1,3.927864E-1,3.786386E-1,-1.2613397E-2,1.9096838E-1,-1.779334E-1,-3.355235E-1,3.7096304E-1,4.058978E-1,3.7371674E-1,3.8998136E-1,2.1098439E-2,-5.6966215E-2,5.4168593E-2,2.2817014E-1,-1.4004982E-1,-2.1038681E-1,-3.0068305E-1,-3.5602692E-1,4.8635624E-2,-4.6006948E-2,-3.1707987E-2,-1.0121454E-1,8.664035E-2,1.3580159E-3,1.8379793E-1,2.6922992E-1,-1.2519191E-1,-2.4592347E-1,-2.0663568E-1,-3.576434E-1,-2.8141174E-1,-3.1530407E-1,-3.4236985E-1,-3.5999945E-1,5.155304E-2,-4.4238028E-1,-2.4495121E-2,-2.0515712E-1,-2.7372364E-2,-3.9785132E-1,-3.8920682E-2,-1.4717056E-1,5.6047797E-2,1.3592036E-1,2.9618744E-2,-1.6038515E-1,2.2302173E-1,7.111101E-2,2.7299103E-1,1.2453099E-2,-1.4200512E-1,-3.417711E-2,-1.3999693E-1,-3.738343E-1,-1.8503648E-1,-2.3123336E-1,-3.810234E-1,-2.794528E-1,-2.819514E-1,2.081871E-1,-3.15581E-1,-5.4840725E-2,-3.440477E-1,-1.7576545E-2],"categories":[],"categories_nodes":[],"categories_segments":[],"categories_sizes":[],"default_left":[1,1,1,1,1,1,1,1,0,0,1,1,1,1,1,0,0,0,0,1,1,1,1,1,1,1,1,1,1,1,1,1,1,1,1,1,1,1,1,1,1,1,0,0,0,0,0,0,0,0,0,0,0,0,0,0,0,0,0,0,0,0,0,0,0,0,0,0,0,0,0,0,0],"id":6,"left_children":[1,3,5,7,9,11,13,15,-1,-1,17,19,21,23,25,-1,-1,-1,-1,27,29,31,33,35,37,39,41,43,45,47,49,51,53,55,57,59,61,63,65,67,69,71,-1,-1,-1,-1,-1,-1,-1,-1,-1,-1,-1,-1,-1,-1,-1,-1,-1,-1,-1,-1,-1,-1,-1,-1,-1,-1,-1,-1,-1,-1,-1],"loss_changes":[6.3843525E3,1.2602539E0,9.3905054E2,2.9003906E-1,3.1018066E-1,3.2493652E2,9.720691E1,1.5576172E-1,0E0,0E0,1.3171387E-1,2.0730379E2,4.227881E1,9.381989E0,5.6228027E0,0E0,0E0,0E0,0E0,1.455645E2,6.69129E1,3.0488892E0,1.1853088E1,5.5299835E0,2.2024536E0,7.503662E-1,1.5045166E-1,8.0032104E1,7.8464134E1,6.049832E1,6.2279724E1,1.6522522E0,3.1038747E0,1.3876236E1,3.2714996E0,4.7419853E0,5.8279953E0,2.0935364E0,7.8160286E-2,4.0060425E-1,1.0423279E-1,6.2446594E-1,0E0,0E0,0E0,0E0,0E0,0E0,0E0,0E0,0E0,0E0,0E0,0E0,0E0,0E0,0E0,0E0,0E0,0E0,0E0,0E0,0E0,0E0,0E0,0E0,0E0,0E0,0E0,0E0,0E0,0E0,0E0],"parents":[2147483647,0,0,1,1,2,2,3,3,4,4,5,5,6,6,7,7,10,10,11,11,12,12,13,13,14,14,19,19,20,20,21,21,22,22,23,23,24,24,25,25,26,26,27,27,28,28,29,29,30,30,31,31,32,32,33,33,34,34,35,35,36,36,37,37,38,38,39,39,40,40,41,41],"right_children":[2,4,6,8,10,12,14,16,-1,-1,18,20,22,24,26,-1,-1,-1,-1,28,30,32,34,36,38,40,42,44,46,48,50,52,54,56,58,60,62,64,66,68,70,72,-1,-1,-1,-1,-1,-1,-1,-1,-1,-1,-1,-1,-1,-1,-1,-1,-1,-1,-1,-1,-1,-1,-1,-1,-1,-1,-1,-1,-1,-1,-1],"split_conditions":[1.5E0,1.5E0,2.5E0,5E-1,9.761905E-2,5E-1,6.5E0,5E-1,1.9642713E-2,1.963932E-2,2.5E0,1.5E0,5E-1,3.5E0,1.75E1,1.8548151E-2,2.029489E-2,1.8685838E-2,1.949907E-2,2.2260764E-1,5E-1,1.55E1,4.672897E-3,2.1825394E-1,4E0,9.5E0,3.95E1,6.5E0,4E0,6.5E0,1.5E0,2.4568966E-1,5E-1,7.8125E-3,2.25E1,4.642857E-1,4.642857E-1,4.5E0,7.142855E-2,3.15E1,4.1E1,6.25E1,-1.7999973E-2,2.577652E-3,-2.2119014E-2,-1.2247561E-3,-1.0257856E-2,-1.3686182E-3,-1.9892566E-2,-1.9460341E-3,-7.358528E-3,2.80239E-3,6.796018E-3,1.4809372E-3,-8.019257E-3,1.1151087E-2,3.5555505E-3,1.3649552E-2,6.22655E-4,-7.1002557E-3,-1.7088555E-3,-6.9998465E-3,-1.8691717E-2,-9.251825E-3,-1.15616685E-2,-1.905117E-2,-1.397264E-2,-1.409757E-2,1.0409355E-2,-1.577905E-2,-2.7420362E-3,-1.7202385E-2,-8.788273E-4],"split_indices":[6,31,6,22,8,2,6,17,0,0,31,61,4,6,6,0,0,0,0,46,4,64,12,40,37,6,6,37,37,37,31,7,18,46,34,26,26,6,39,38,38,61,0,0,0,0,0,0,0,0,0,0,0,0,0,0,0,0,0,0,0,0,0,0,0,0,0,0,0,0,0,0,0],"split_type":[0,0,0,0,0,0,0,0,0,0,0,0,0,0,0,0,0,0,0,0,0,0,0,0,0,0,0,0,0,0,0,0,0,0,0,0,0,0,0,0,0,0,0,0,0,0,0,0,0,0,0,0,0,0,0,0,0,0,0,0,0,0,0,0,0,0,0,0,0,0,0,0,0],"sum_hessian":[2.15526E5,5.29E4,1.62626E5,4.3684E4,9.216E3,1.46952E5,1.5674E4,4.2755E4,9.29E2,4.247E3,4.969E3,1.38643E5,8.309E3,7.654E3,8.02E3,4.2514E4,2.41E2,3.489E3,1.48E3,7.8771E4,5.9872E4,1.777E3,6.532E3,3.534E3,4.12E3,2.977E3,5.043E3,5.5852E4,2.2919E4,3.8116E4,2.1756E4,1.1E3,6.77E2,3.142E3,3.39E3,3.101E3,4.33E2,4.02E3,1E2,1.293E3,1.684E3,1.156E3,3.887E3,5.5523E4,3.29E2,2.0191E4,2.728E3,3.7671E4,4.45E2,9.237E3,1.2519E4,6.8E2,4.2E2,5.77E2,1E2,2.33E3,8.12E2,3.341E3,4.9E1,2.617E3,4.84E2,2.38E2,1.95E2,2.145E3,1.875E3,7.4E1,2.6E1,1.292E3,1E0,1.682E3,2E0,1.15E3,6E0],"tree_param":{"num_deleted":"0","num_feature":"67","num_nodes":"73","size_leaf_vector":"0"}},{"base_weights":[6.867616E-2,3.5536018E-1,-2.4966434E-2,3.5307035E-1,3.808406E-1,-1.5504397E-3,-2.4607962E-1,3.52865E-1,3.87102E-1,3.8747302E-1,3.6833104E-1,-1.2739806E-2,1.8369296E-1,-1.6919383E-1,-3.1890473E-1,3.5206985E-1,3.5963577E-1,1.935733E-2,-5.5087212E-2,5.0596587E-2,2.2036025E-1,-1.3475902E-1,-1.9924305E-1,-2.8155884E-1,-3.3606568E-1,3.5237354E-1,3.6902925E-1,-2.1057235E-2,6.475151E-2,-3.128285E-2,-9.6968964E-2,2.5955608E-2,1.2889838E-1,1.836318E-1,2.5379446E-1,-1.21002115E-1,-2.358887E-1,-2.1684249E-1,-1.7433423E-1,-2.6049674E-1,-2.9299775E-1,-3.194528E-1,-3.413865E-1,-6.774541E-2,2.555529E-3,4.7485165E-2,2.207095E-1,-1.3210662E-1,-1.805241E-2,-3.170048E-1,-2.638147E-2,5.582941E-2,-1.1636919E-2,1.5244402E-1,1.8058216E-2,2.1905515E-1,8.079022E-2,2.5699612E-1,1.2398355E-2,-1.3624689E-1,-3.304083E-2,-1.401671E-1,-3.4766373E-1,-2.0095542E-1,-3.6929756E-1,-1.7804845E-1,5.951555E-2,-2.6130557E-1,2.3211351E-1,-2.9743528E-1,-2.6417297E-1,-3.2004055E-1,-2.0910259E-1,-3.4184483E-1,-2.1039246E-1],"categories":[],"categories_nodes":[],"categories_segments":[],"categories_sizes":[],"default_left":[1,1,1,1,1,1,1,1,0,0,0,1,1,1,1,0,1,1,1,1,1,1,1,1,1,0,0,1,1,1,1,1,1,1,1,1,1,1,1,1,1,1,1,0,0,0,0,0,0,0,0,0,0,0,0,0,0,0,0,0,0,0,0,0,0,0,0,0,0,0,0,0,0,0,0],"id":7,"left_children":[1,3,5,7,9,11,13,15,-1,-1,-1,17,19,21,23,-1,25,27,29,31,33,35,37,39,41,-1,-1,43,45,47,49,51,53,55,57,59,61,63,65,67,69,71,73,-1,-1,-1,-1,-1,-1,-1,-1,-1,-1,-1,-1,-1,-1,-1,-1,-1,-1,-1,-1,-1,-1,-1,-1,-1,-1,-1,-1,-1,-1,-1,-1],"loss_changes":[5.790011E3,2.9643555E0,8.4174036E2,2.0410156E-1,2.1954346E-1,3.0471204E2,8.7114746E1,1.3427734E-1,0E0,0E0,0E0,1.8843663E2,4.0856323E1,7.8112793E0,5.0286255E0,0E0,2.1417236E-1,1.4468051E2,5.958876E1,3.4889274E0,8.015137E0,4.8866806E0,1.7345886E0,5.315399E-1,3.746338E-1,0E0,0E0,4.5993843E1,1.0000911E2,5.083817E1,3.3642548E2,1.5481875E0,1.1272917E0,1.13921585E1,2.6508331E0,4.1685333E0,4.4663677E0,5.653969E0,1.4689293E0,4.180565E-1,1.2953186E-1,2.0187378E-2,1.7605591E-1,0E0,0E0,0E0,0E0,0E0,0E0,0E0,0E0,0E0,0E0,0E0,0E0,0E0,0E0,0E0,0E0,0E0,0E0,0E0,0E0,0E0,0E0,0E0,0E0,0E0,0E0,0E0,0E0,0E0,0E0,0E0,0E0],"parents":[2147483647,0,0,1,1,2,2,3,3,4,4,5,5,6,6,7,7,11,11,12,12,13,13,14,14,16,16,17,17,18,18,19,19,20,20,21,21,22,22,23,23,24,24,27,27,28,28,29,29,30,30,31,31,32,32,33,33,34,34,35,35,36,36,37,37,38,38,39,39,40,40,41,41,42,42],"right_children":[2,4,6,8,10,12,14,16,-1,-1,-1,18,20,22,24,-1,26,28,30,32,34,36,38,40,42,-1,-1,44,46,48,50,52,54,56,58,60,62,64,66,68,70,72,74,-1,-1,-1,-1,-1,-1,-1,-1,-1,-1,-1,-1,-1,-1,-1,-1,-1,-1,-1,-1,-1,-1,-1,-1,-1,-1,-1,-1,-1,-1,-1,-1],"split_conditions":[1.5E0,9.245014E-1,2.5E0,5E-1,5E-1,5E-1,6.5E0,5E-1,1.9355102E-2,1.9373652E-2,1.8416552E-2,1.5E0,5E-1,3.5E0,1.55E1,1.7603492E-2,6.0555553E-1,1.5E0,5E-1,2.9285717E-1,4.672897E-3,2.1825394E-1,5E-1,8.5E0,3.45E1,1.7618677E-2,1.8451463E-2,4.5E0,3.5E0,2.5E0,5E-1,8.5E0,5E-1,7.8125E-3,2.45E1,4.642857E-1,4.642857E-1,5E-1,5E-1,2.2E1,5E-1,6.5E0,4.5E0,-3.3872705E-3,1.2777645E-4,2.3742584E-3,1.1035475E-2,-6.605331E-3,-9.0262055E-4,-1.585024E-2,-1.3190735E-3,2.7914706E-3,-5.81846E-4,7.622201E-3,9.0291083E-4,1.0952758E-2,4.039511E-3,1.2849807E-2,6.1991776E-4,-6.812345E-3,-1.6520415E-3,-7.008355E-3,-1.7383186E-2,-1.0047771E-2,-1.8464878E-2,-8.902422E-3,2.9757775E-3,-1.30652785E-2,1.1605675E-2,-1.4871764E-2,-1.3208649E-2,-1.6002027E-2,-1.045513E-2,-1.7092241E-2,-1.0519623E-2],"split_indices":[6,30,6,17,2,2,6,16,0,0,0,61,4,6,6,0,30,38,4,58,11,40,36,6,6,0,0,64,5,64,36,35,24,46,34,26,26,4,55,35,54,38,36,0,0,0,0,0,0,0,0,0,0,0,0,0,0,0,0,0,0,0,0,0,0,0,0,0,0,0,0,0,0,0,0],"split_type":[0,0,0,0,0,0,0,0,0,0,0,0,0,0,0,0,0,0,0,0,0,0,0,0,0,0,0,0,0,0,0,0,0,0,0,0,0,0,0,0,0,0,0,0,0,0,0,0,0,0,0,0,0,0,0,0,0,0,0,0,0,0,0,0,0,0,0,0,0,0,0,0,0,0,0],"sum_hessian":[2.15675E5,5.3102E4,1.62573E5,4.8737E4,4.365E3,1.47006E5,1.5567E4,4.8456E4,2.81E2,2.833E3,1.532E3,1.38633E5,8.373E3,7.574E3,7.993E3,4.3411E4,5.045E3,7.8861E4,5.9772E4,1.809E3,6.564E3,3.532E3,4.042E3,2.522E3,5.471E3,2.867E3,2.178E3,4.1719E4,3.7142E4,3.8112E4,2.166E4,1.377E3,4.32E2,3.131E3,3.433E3,3.111E3,4.21E2,2.364E3,1.678E3,8.96E2,1.626E3,1.342E3,4.129E3,1.4012E4,2.7707E4,3.3441E4,3.701E3,4.42E3,3.3692E4,5.26E3,1.64E4,7.67E2,6.1E2,3.56E2,7.6E1,2.328E3,8.03E2,3.388E3,4.5E1,2.651E3,4.6E2,2.28E2,1.93E2,2.143E3,2.21E2,1.652E3,2.6E1,8.95E2,1E0,1.401E3,2.25E2,1.333E3,9E0,4.113E3,1.6E1],"tree_param":{"num_deleted":"0","num_feature":"67","num_nodes":"75","size_leaf_vector":"0"}},{"base_weights":[6.516014E-2,3.3757788E-1,-2.3854403E-2,3.3540687E-1,3.477565E-1,-1.5048542E-3,-2.3253495E-1,3.3496603E-1,3.5476428E-1,3.5438496E-1,3.4178057E-1,-1.1968157E-2,1.7464349E-1,-1.5252125E-1,-2.9806554E-1,3.3479825E-1,3.660832E-1,3.372278E-1,3.5233498E-1,1.8054983E-2,-5.13722E-2,4.913843E-2,2.0885572E-1,-1.7499508E-1,-1.19443186E-1,-2.5471374E-1,-3.1679782E-1,-3.0055854E-2,5.1668152E-2,-2.6974175E-2,-9.400821E-2,2.8666986E-2,1.1603493E-1,1.6562667E-1,2.3894776E-1,-1.5364064E-1,-3.685034E-1,-1.0050665E-1,-1.9127806E-1,-2.3667502E-1,-2.6632744E-1,-2.959512E-1,-3.232987E-1,-4.6509508E-2,2.6169764E-2,5.6722157E-2,-2.3145077E-1,-8.631773E-2,-5.709882E-3,-3.0364904E-1,-2.6717287E-2,7.960494E-2,-3.3646366E-3,9.205713E-2,1.882412E-1,9.82641E-2,2.1945931E-1,2.4248263E-1,-1.2806623E-1,-1.4300704E-1,-2.1861255E-1,-3.8168356E-1,-3.041705E-1,-6.079759E-2,-1.3888985E-1,-1.9707362E-1,1.6862883E-1,-2.3731102E-1,2.0951506E-1,-2.6323804E-1,-3.2173312E-1,-2.918345E-1,-3.160087E-1,-3.2370296E-1,-2.0274933E-1],"categories":[],"categories_nodes":[],"categories_segments":[],"categories_sizes":[],"default_left":[1,1,1,1,1,1,1,1,0,0,1,1,1,1,1,0,0,0,0,1,1,1,1,1,1,1,1,1,1,1,1,1,1,1,1,1,1,1,1,1,1,1,1,0,0,0,0,0,0,0,0,0,0,0,0,0,0,0,0,0,0,0,0,0,0,0,0,0,0,0,0,0,0,0,0],"id":8,"left_children":[1,3,5,7,9,11,13,15,-1,-1,17,19,21,23,25,-1,-1,-1,-1,27,29,31,33,35,37,39,41,43,45,47,49,51,53,55,57,59,61,63,65,67,69,71,73,-1,-1,-1,-1,-1,-1,-1,-1,-1,-1,-1,-1,-1,-1,-1,-1,-1,-1,-1,-1,-1,-1,-1,-1,-1,-1,-1,-1,-1,-1,-1,-1],"loss_changes":[5.2273716E3,1.0561523E0,7.577881E2,2.548828E-1,2.475586E-1,2.7049817E2,8.2369446E1,1.015625E-1,0E0,0E0,1.1767578E-1,1.6389124E2,3.5323486E1,5.241562E0,6.935669E0,0E0,0E0,0E0,0E0,1.2715382E2,6.231581E1,2.412415E0,8.371735E0,1.7352615E1,3.880764E0,4.8417664E-1,7.213135E-1,2.991949E1,6.624589E1,4.8084156E1,3.0757928E2,2.2062254E0,6.9771767E-1,9.613525E0,4.973938E0,2.591339E0,2.3833466E-1,3.4529247E0,1.278492E0,3.4257126E-1,1.8593597E-1,2.709198E-2,1.5783691E-1,0E0,0E0,0E0,0E0,0E0,0E0,0E0,0E0,0E0,0E0,0E0,0E0,0E0,0E0,0E0,0E0,0E0,0E0,0E0,0E0,0E0,0E0,0E0,0E0,0E0,0E0,0E0,0E0,0E0,0E0,0E0,0E0],"parents":[2147483647,0,0,1,1,2,2,3,3,4,4,5,5,6,6,7,7,10,10,11,11,12,12,13,13,14,14,19,19,20,20,21,21,22,22,23,23,24,24,25,25,26,26,27,27,28,28,29,29,30,30,31,31,32,32,33,33,34,34,35,35,36,36,37,37,38,38,39,39,40,40,41,41,42,42],"right_children":[2,4,6,8,10,12,14,16,-1,-1,18,20,22,24,26,-1,-1,-1,-1,28,30,32,34,36,38,40,42,44,46,48,50,52,54,56,58,60,62,64,66,68,70,72,74,-1,-1,-1,-1,-1,-1,-1,-1,-1,-1,-1,-1,-1,-1,-1,-1,-1,-1,-1,-1,-1,-1,-1,-1,-1,-1,-1,-1,-1,-1,-1,-1],"split_conditions":[1.5E0,1.5E0,2.5E0,5E-1,9.600614E-2,5E-1,5.5E0,5E-1,1.7738214E-2,1.7719248E-2,2.5E0,1.5E0,5E-1,5E-1,1.25E1,1.6739912E-2,1.830416E-2,1.686139E-2,1.7616749E-2,5.811404E-1,5E-1,2.9285717E-1,1.791444E-1,5E-1,4.5E0,7.5E0,2.75E1,1.5E0,4.3167698E-1,4.5E0,5E-1,2.5E0,2.1742425E0,1.0416665E-2,3.5357144E-1,2.264957E-1,4.5E0,1.5E0,4.1666666E-1,3.15E1,4.722222E-1,6.9711536E-2,4.5E0,-2.3254754E-3,1.3084882E-3,2.836108E-3,-1.1572539E-2,-4.3158866E-3,-2.854941E-4,-1.5182452E-2,-1.3358643E-3,3.980247E-3,-1.6823183E-4,4.6028565E-3,9.4120605E-3,4.913205E-3,1.09729655E-2,1.2124131E-2,-6.4033116E-3,-7.150352E-3,-1.0930628E-2,-1.9084178E-2,-1.5208525E-2,-3.0398795E-3,-6.9444925E-3,-9.853682E-3,8.431441E-3,-1.1865552E-2,1.0475754E-2,-1.3161902E-2,-1.6086657E-2,-1.4591726E-2,-1.5800435E-2,-1.6185148E-2,-1.0137467E-2],"split_indices":[6,31,6,22,8,2,6,17,0,0,31,61,4,36,6,0,0,0,0,62,4,58,58,4,6,6,6,38,46,64,36,33,62,12,8,40,6,4,43,38,46,46,36,0,0,0,0,0,0,0,0,0,0,0,0,0,0,0,0,0,0,0,0,0,0,0,0,0,0,0,0,0,0,0,0],"split_type":[0,0,0,0,0,0,0,0,0,0,0,0,0,0,0,0,0,0,0,0,0,0,0,0,0,0,0,0,0,0,0,0,0,0,0,0,0,0,0,0,0,0,0,0,0,0,0,0,0,0,0,0,0,0,0,0,0,0,0,0,0,0,0,0,0,0,0,0,0,0,0,0,0,0,0],"sum_hessian":[2.15568E5,5.309E4,1.62478E5,4.3785E4,9.305E3,1.46761E5,1.5717E4,4.2828E4,9.57E2,4.384E3,4.921E3,1.38533E5,8.228E3,7.078E3,8.639E3,4.261E4,2.18E2,3.461E3,1.46E3,7.8626E4,5.9907E4,1.763E3,6.465E3,4.212E3,2.866E3,2.611E3,6.028E3,3.2339E4,4.6287E4,3.8104E4,2.1803E4,1.351E3,4.12E2,2.656E3,3.809E3,3.795E3,4.17E2,2.27E3,5.96E2,1.031E3,1.58E3,1.444E3,4.584E3,2.5018E4,7.321E3,4.5476E4,8.11E2,1.0051E4,2.8053E4,5.297E3,1.6506E4,5.21E2,8.3E2,3.11E2,1.01E2,1.181E3,1.475E3,3.773E3,3.6E1,3.264E3,5.31E2,3.42E2,7.5E1,1.117E3,1.153E3,5.87E2,9E0,1.03E3,1E0,1.502E3,7.8E1,1.211E3,2.33E2,4.567E3,1.7E1],"tree_param":{"num_deleted":"0","num_feature":"67","num_nodes":"75","size_leaf_vector":"0"}},{"base_weights":[6.1786674E-2,3.2066143E-1,-2.2661943E-2,3.1859514E-1,3.4398577E-1,-1.3940268E-3,-2.2154583E-1,3.181531E-1,3.3780593E-1,3.5054374E-1,3.3891097E-1,-1.077745E-2,2.33465E-1,-1.4764155E-1,-2.8267622E-1,3.1796604E-1,3.4940407E-1,-5.64643E-3,-2.2191304E-1,2.6012945E-1,1.5826018E-1,-1.4933005E-1,3.5640362E-1,-2.4032053E-1,-3.0120426E-1,2.3879856E-2,-4.2427383E-2,-2.5273436E-1,2.3021007E-1,2.6898494E-1,1.8393612E-1,9.3813874E-2,2.471903E-1,-1.241074E-1,-1.73989E-1,3.9164385E-1,-2.270608E-1,-2.030515E-1,-2.52514E-1,-2.812607E-1,-3.0711737E-1,1.2419064E-1,9.433013E-3,-1.7727021E-2,-8.478383E-2,-1.5421954E-1,-3.2612267E-1,4.1171673E-1,3.427305E-2,2.7236766E-1,7.447788E-2,2.4628219E-1,1.295623E-1,2.5278443E-1,4.15796E-2,2.5877342E-1,-1.1324179E-1,-7.390088E-2,-1.4849737E-1,-1.7038925E-1,-3.3535454E-1,-1.7482774E-1,-2.6706433E-1,-2.3095343E-1,-2.5746423E-1,-2.7753583E-1,-2.9834217E-1,-3.0739522E-1,-2.1429658E-1],"categories":[],"categories_nodes":[],"categories_segments":[],"categories_sizes":[],"default_left":[1,1,1,1,1,1,1,1,0,0,0,1,1,1,1,0,0,1,1,1,1,1,1,1,1,1,1,1,1,1,1,1,1,1,1,0,0,1,1,1,1,0,0,0,0,0,0,0,0,0,0,0,0,0,0,0,0,0,0,0,0,0,0,0,0,0,0,0,0],"id":9,"left_children":[1,3,5,7,9,11,13,15,-1,-1,-1,17,19,21,23,-1,-1,25,27,29,31,33,35,37,39,41,43,45,47,49,51,53,55,57,59,-1,-1,61,63,65,67,-1,-1,-1,-1,-1,-1,-1,-1,-1,-1,-1,-1,-1,-1,-1,-1,-1,-1,-1,-1,-1,-1,-1,-1,-1,-1,-1,-1],"loss_changes":[4.705545E3,2.4423828E0,6.864994E2,3.0566406E-1,2.420044E-2,3.231232E2,7.0792786E1,1.665039E-1,0E0,0E0,0E0,1.5273792E2,1.1254669E1,6.0958557E0,6.6609497E0,0E0,0E0,1.4948415E2,4.66709E1,2.7554016E0,8.441822E0,4.3800507E0,5.824008E-1,1.1375427E0,6.170044E-1,1.1064763E2,6.412444E1,2.2593552E1,7.5965595E0,2.4286804E0,1.4461279E0,7.1140723E0,2.617756E0,4.2773476E0,2.0200653E0,0E0,0E0,1.1276531E0,1.5047455E-1,4.753113E-3,5.2520752E-2,0E0,0E0,0E0,0E0,0E0,0E0,0E0,0E0,0E0,0E0,0E0,0E0,0E0,0E0,0E0,0E0,0E0,0E0,0E0,0E0,0E0,0E0,0E0,0E0,0E0,0E0,0E0,0E0],"parents":[2147483647,0,0,1,1,2,2,3,3,4,4,5,5,6,6,7,7,11,11,12,12,13,13,14,14,17,17,18,18,19,19,20,20,21,21,22,22,23,23,24,24,25,25,26,26,27,27,28,28,29,29,30,30,31,31,32,32,33,33,34,34,37,37,38,38,39,39,40,40],"right_children":[2,4,6,8,10,12,14,16,-1,-1,-1,18,20,22,24,-1,-1,26,28,30,32,34,36,38,40,42,44,46,48,50,52,54,56,58,60,-1,-1,62,64,66,68,-1,-1,-1,-1,-1,-1,-1,-1,-1,-1,-1,-1,-1,-1,-1,-1,-1,-1,-1,-1,-1,-1,-1,-1,-1,-1,-1,-1],"split_conditions":[1.5E0,9.245014E-1,2.5E0,5E-1,5E-1,5E-1,5.5E0,5E-1,1.6890297E-2,1.7527187E-2,1.6945548E-2,5.5E0,5.1956814E-2,5E-1,1.25E1,1.5898302E-2,1.7470203E-2,1.5E0,7.142855E-2,5E-1,1.2132355E-1,3.5E0,1.05E1,1.5E0,2.6E1,1.5E0,5E-1,5E-1,8.333335E-2,4E0,5E-1,5E-1,3.1666666E-1,5E-1,4E0,1.9582193E-2,-1.135304E-2,1.5151515E-2,6.5E0,5.6318685E-2,4.5E0,6.2095323E-3,4.7165068E-4,-8.8635104E-4,-4.2391918E-3,-7.710977E-3,-1.6306134E-2,2.0585837E-2,1.7136525E-3,1.3618383E-2,3.723894E-3,1.231411E-2,6.4781155E-3,1.2639222E-2,2.07898E-3,1.2938671E-2,-5.6620897E-3,-3.695044E-3,-7.4248686E-3,-8.519462E-3,-1.6767727E-2,-8.741387E-3,-1.3353216E-2,-1.1547672E-2,-1.2873212E-2,-1.3876791E-2,-1.4917108E-2,-1.5369761E-2,-1.0714829E-2],"split_indices":[6,30,6,22,36,1,6,17,0,0,0,37,46,1,6,0,0,61,58,51,11,6,33,0,6,34,4,0,7,37,17,0,46,0,37,0,0,46,6,46,36,0,0,0,0,0,0,0,0,0,0,0,0,0,0,0,0,0,0,0,0,0,0,0,0,0,0,0,0],"split_type":[0,0,0,0,0,0,0,0,0,0,0,0,0,0,0,0,0,0,0,0,0,0,0,0,0,0,0,0,0,0,0,0,0,0,0,0,0,0,0,0,0,0,0,0,0,0,0,0,0,0,0,0,0,0,0,0,0,0,0,0,0,0,0,0,0,0,0,0,0],"sum_hessian":[2.15241E5,5.2943E4,1.62298E5,4.8648E4,4.295E3,1.4662E5,1.5678E4,4.7571E4,1.077E3,1.844E3,2.451E3,1.40988E5,5.632E3,7.099E3,8.579E3,4.7299E4,2.72E2,1.37644E5,3.344E3,4.156E3,1.476E3,7.076E3,2.3E1,2.615E3,5.964E3,7.6352E4,6.1292E4,3.131E3,2.13E2,3.721E3,4.35E2,8.57E2,6.19E2,3.501E3,3.575E3,2.2E1,1E0,6.49E2,1.966E3,1.375E3,4.589E3,9.611E3,6.6741E4,3.8716E4,2.2576E4,1.338E3,1.793E3,1.1E2,1.03E2,3.657E3,6.4E1,2.01E2,2.34E2,2.11E2,6.46E2,6E2,1.9E1,1.146E3,2.355E3,3.499E3,7.6E1,4.53E2,1.96E2,3.76E2,1.59E3,1.143E3,2.32E2,4.573E3,1.6E1],"tree_param":{"num_deleted":"0","num_feature":"67","num_nodes":"69","size_leaf_vector":"0"}},{"base_weights":[5.8413714E-2,3.0464473E-1,-2.1961417E-2,3.0272382E-1,3.136946E-1,-1.8187136E-3,-2.1116735E-1,3.0231968E-1,3.2016543E-1,3.126936E-1,3.3463088E-1,-1.0618728E-2,2.1932563E-1,-1.4526719E-1,-2.7332002E-1,3.0215737E-1,3.3029824E-1,3.110418E-1,3.226698E-1,-4.2732224E-2,2.1215852E-2,2.3165064E-1,1.3778418E-1,-1.4687142E-1,3.4579253E-1,-2.3730911E-1,-2.8672668E-1,3.0821386E-1,3.1772777E-1,-3.4318373E-2,-2.0949088E-1,1.0684169E-2,1.7023498E-1,2.606057E-1,2.0854409E-1,-3.1380374E-2,1.8600358E-1,-1.1926845E-1,-1.7057548E-1,3.7609455E-1,-1.9072786E-1,-2.0359984E-1,-2.4717931E-1,-2.7126914E-1,-2.9307127E-1,-9.480112E-3,-7.011695E-2,-2.4262485E-1,2.0926942E-1,-3.0870588E-2,4.8314568E-2,3.438241E-1,-2.666697E-1,2.655241E-1,-6.8295547E-3,1.7943305E-1,2.565272E-1,-2.3897125E-1,8.641994E-2,-3.0450642E-1,1.8996607E-1,-6.818751E-2,-1.4472495E-1,-1.6741726E-1,-2.929015E-1,-2.3571454E-1,-1.4451241E-1,-2.5902173E-1,-2.3007013E-1,-2.716914E-1,-1.8108161E-1,-2.9335445E-1,-2.0177707E-1],"categories":[],"categories_nodes":[],"categories_segments":[],"categories_sizes":[],"default_left":[1,1,1,1,1,1,1,1,0,1,0,1,1,1,1,0,0,1,0,1,1,1,1,1,1,1,1,0,0,1,1,1,1,1,1,1,1,1,1,0,0,1,1,1,1,0,0,0,0,0,0,0,0,0,0,0,0,0,0,0,0,0,0,0,0,0,0,0,0,0,0,0,0],"id":10,"left_children":[1,3,5,7,9,11,13,15,-1,17,-1,19,21,23,25,-1,-1,27,-1,29,31,33,35,37,39,41,43,-1,-1,45,47,49,51,53,55,57,59,61,63,-1,-1,65,67,69,71,-1,-1,-1,-1,-1,-1,-1,-1,-1,-1,-1,-1,-1,-1,-1,-1,-1,-1,-1,-1,-1,-1,-1,-1,-1,-1,-1,-1],"loss_changes":[4.2630156E3,8.2666016E-1,6.189063E2,2.1191406E-1,8.92334E-2,2.8562946E2,6.3958252E1,9.448242E-2,0E0,4.5410156E-2,0E0,1.4430646E2,5.613159E0,6.02684E0,3.8135986E0,0E0,0E0,4.6142578E-2,0E0,9.858745E1,1.1124825E2,3.2092896E0,6.0420256E0,4.9275055E0,4.7817278E-1,6.773224E-1,4.945984E-1,0E0,0E0,5.9481552E1,4.6879547E1,1.035324E2,3.5495587E2,2.844284E0,3.7505646E0,4.0556064E0,1.1773853E0,4.537426E0,1.5217896E0,0E0,0E0,9.1662025E-1,2.8221893E-1,1.6181946E-2,4.7821045E-2,0E0,0E0,0E0,0E0,0E0,0E0,0E0,0E0,0E0,0E0,0E0,0E0,0E0,0E0,0E0,0E0,0E0,0E0,0E0,0E0,0E0,0E0,0E0,0E0,0E0,0E0,0E0,0E0],"parents":[2147483647,0,0,1,1,2,2,3,3,4,4,5,5,6,6,7,7,9,9,11,11,12,12,13,13,14,14,17,17,19,19,20,20,21,21,22,22,23,23,24,24,25,25,26,26,29,29,30,30,31,31,32,32,33,33,34,34,35,35,36,36,37,37,38,38,41,41,42,42,43,43,44,44],"right_children":[2,4,6,8,10,12,14,16,-1,18,-1,20,22,24,26,-1,-1,28,-1,30,32,34,36,38,40,42,44,-1,-1,46,48,50,52,54,56,58,60,62,64,-1,-1,66,68,70,72,-1,-1,-1,-1,-1,-1,-1,-1,-1,-1,-1,-1,-1,-1,-1,-1,-1,-1,-1,-1,-1,-1,-1,-1,-1,-1,-1,-1],"split_conditions":[1.5E0,1.5E0,2.5E0,5E-1,5E-1,5E-1,6.5E0,5E-1,1.600827E-2,5E-1,1.6731543E-2,1.5E0,5E-1,5E-1,1.35E1,1.5107869E-2,1.6514912E-2,2.5E0,1.6133491E-2,4E0,3.5E0,5E-1,1.380952E-1,3.5E0,4E0,1.5E0,3.45E1,1.5410693E-2,1.5886389E-2,1.5E0,7.142855E-2,5E-1,5E-1,4E0,1.5894735E-1,2.5E0,8.1666666E-1,5E-1,4E0,1.8804727E-2,-9.536393E-3,4.5E0,5E-1,6.5E0,4.5E0,-4.7400562E-4,-3.5058476E-3,-1.2131243E-2,1.04634715E-2,-1.5435294E-3,2.4157285E-3,1.7191205E-2,-1.33334845E-2,1.32762045E-2,-3.4147775E-4,8.971653E-3,1.282636E-2,-1.1948562E-2,4.3209973E-3,-1.5225321E-2,9.498304E-3,-3.4093757E-3,-7.2362474E-3,-8.370863E-3,-1.46450745E-2,-1.1785727E-2,-7.225621E-3,-1.2951086E-2,-1.1503506E-2,-1.3584571E-2,-9.054081E-3,-1.4667722E-2,-1.0088854E-2],"split_indices":[6,31,6,22,17,1,6,17,0,16,0,38,51,1,6,0,0,31,0,37,5,0,58,6,4,0,6,0,0,61,58,0,0,37,11,33,62,0,37,0,0,35,36,38,36,0,0,0,0,0,0,0,0,0,0,0,0,0,0,0,0,0,0,0,0,0,0,0,0,0,0,0,0],"split_type":[0,0,0,0,0,0,0,0,0,0,0,0,0,0,0,0,0,0,0,0,0,0,0,0,0,0,0,0,0,0,0,0,0,0,0,0,0,0,0,0,0,0,0,0,0,0,0,0,0,0,0,0,0,0,0,0,0,0,0,0,0,0,0,0,0,0,0,0,0,0,0,0,0],"sum_hessian":[2.15402E5,5.3008E4,1.62394E5,4.3755E4,9.253E3,1.4677E5,1.5624E4,4.2782E4,9.73E2,8.846E3,4.07E2,1.41154E5,5.616E3,7.585E3,8.039E3,4.2547E4,2.35E2,7.617E3,1.229E3,7.0269E4,7.0885E4,4.877E3,7.39E2,7.561E3,2.4E1,2.186E3,5.853E3,5.386E3,2.231E3,6.6895E4,3.374E3,6.6207E4,4.678E3,2.16E3,2.717E3,1.64E2,5.75E2,3.496E3,4.065E3,2.3E1,1E0,5E2,1.686E3,1.716E3,4.137E3,3.9494E4,2.7401E4,3.127E3,2.47E2,3.1463E4,3.4744E4,3.348E3,1.33E3,2.121E3,3.9E1,1.694E3,1.023E3,5.9E1,1.05E2,4E0,5.71E2,1.164E3,2.332E3,3.965E3,1E2,3.22E2,1.78E2,9.88E2,6.98E2,1.706E3,1E1,4.122E3,1.5E1],"tree_param":{"num_deleted":"0","num_feature":"67","num_nodes":"73","size_leaf_vector":"0"}},{"base_weights":[5.6038335E-2,2.894178E-1,-2.0003377E-2,2.8748453E-1,3.1108907E-1,-8.1604597E-4,-2.0038782E-1,2.870899E-1,3.0486968E-1,3.1737667E-1,2.9946977E-1,-3.956023E-2,3.4742888E-2,-1.333741E-1,-2.5484967E-1,2.8691286E-1,3.1555042E-1,-3.1493433E-2,-2.0103624E-1,2.1133298E-2,1.4879481E-1,-1.5524596E-1,-1.0136834E-1,-2.1847756E-1,-2.7168855E-1,-8.180648E-3,-6.504832E-2,-2.3250832E-1,1.9976687E-1,1.0300519E-2,1.6870137E-1,1.1718917E-1,1.8816091E-1,-1.5102217E-1,-3.2349715E-1,-6.805683E-2,-1.404002E-1,-1.8466155E-1,-2.2976951E-1,-2.5123164E-1,-2.7685174E-1,3.4117943E-1,-1.7552404E-2,-6.790511E-2,1.8852212E-1,-1.4059305E-1,-2.989525E-1,3.5400754E-1,2.077307E-2,-2.9289993E-2,4.6895497E-2,3.2852554E-1,-2.5414258E-1,1.7550838E-1,8.698482E-2,1.2941752E-1,2.0646486E-1,-1.1504911E-1,-1.6547605E-1,-3.3063012E-1,-6.7865066E-2,1.879057E-1,-8.020749E-2,-9.841364E-2,-1.6561557E-1,-2.4217995E-1,-1.5788323E-1,-2.3010543E-1,2.2825783E-1,-2.8860405E-1,-2.486897E-1,-2.7717394E-1,-1.8304956E-1],"categories":[],"categories_nodes":[],"categories_segments":[],"categories_sizes":[],"default_left":[1,1,1,1,1,1,1,1,0,0,0,1,1,1,1,0,0,1,1,1,1,1,1,1,1,1,1,1,1,1,1,1,1,1,1,1,1,1,1,1,1,0,0,0,0,0,0,0,0,0,0,0,0,0,0,0,0,0,0,0,0,0,0,0,0,0,0,0,0,0,0,0,0],"id":11,"left_children":[1,3,5,7,9,11,13,15,-1,-1,-1,17,19,21,23,-1,-1,25,27,29,31,33,35,37,39,41,43,45,47,49,51,53,55,57,59,61,63,65,67,69,71,-1,-1,-1,-1,-1,-1,-1,-1,-1,-1,-1,-1,-1,-1,-1,-1,-1,-1,-1,-1,-1,-1,-1,-1,-1,-1,-1,-1,-1,-1,-1,-1],"loss_changes":[3.8231504E3,2.1289062E0,5.6238635E2,2.4609375E-1,2.2085571E-1,2.023403E2,5.6981506E1,1.4916992E-1,0E0,0E0,0E0,9.154777E1,1.1886745E2,4.888649E0,5.2182617E0,0E0,0E0,5.2366165E1,4.2228027E1,1.0937097E2,1.0135529E1,2.9074783E0,3.6921444E0,1.0007629E0,5.52124E-1,1.2933688E2,1.9892418E1,1.88965E1,6.729027E0,9.235021E1,3.1629352E2,7.9660645E0,3.8806763E0,2.0919724E0,1.6172695E-1,4.7984257E0,1.3706055E0,1.022995E0,3.6701965E-1,4.193878E-2,9.1033936E-2,0E0,0E0,0E0,0E0,0E0,0E0,0E0,0E0,0E0,0E0,0E0,0E0,0E0,0E0,0E0,0E0,0E0,0E0,0E0,0E0,0E0,0E0,0E0,0E0,0E0,0E0,0E0,0E0,0E0,0E0,0E0,0E0],"parents":[2147483647,0,0,1,1,2,2,3,3,4,4,5,5,6,6,7,7,11,11,12,12,13,13,14,14,17,17,18,18,19,19,20,20,21,21,22,22,23,23,24,24,25,25,26,26,27,27,28,28,29,29,30,30,31,31,32,32,33,33,34,34,35,35,36,36,37,37,38,38,39,39,40,40],"right_children":[2,4,6,8,10,12,14,16,-1,-1,-1,18,20,22,24,-1,-1,26,28,30,32,34,36,38,40,42,44,46,48,50,52,54,56,58,60,62,64,66,68,70,72,-1,-1,-1,-1,-1,-1,-1,-1,-1,-1,-1,-1,-1,-1,-1,-1,-1,-1,-1,-1,-1,-1,-1,-1,-1,-1,-1,-1,-1,-1,-1,-1],"split_conditions":[1.5E0,9.281411E-1,2.5E0,5E-1,5E-1,1.5E0,5.5E0,5E-1,1.5243485E-2,1.5868833E-2,1.4973489E-2,4E0,5E-1,5E-1,1.35E1,1.4345643E-2,1.577752E-2,1.5E0,7.142855E-2,3.5E0,4.672897E-3,4E0,1.5E0,1.5E0,2.45E1,1.5E0,2.28E2,5E-1,8.333335E-2,5E-1,5E-1,5.5E0,1.5E0,5E-1,2.5E0,1.5E0,3.5E0,1.5E0,1.12E2,5E-1,4.5E0,1.7058972E-2,-8.776202E-4,-3.3952557E-3,9.426106E-3,-7.0296526E-3,-1.4947625E-2,1.7700378E-2,1.0386535E-3,-1.4644996E-3,2.3447748E-3,1.6426278E-2,-1.2707129E-2,8.77542E-3,4.349241E-3,6.4708763E-3,1.0323243E-2,-5.7524554E-3,-8.273803E-3,-1.6531507E-2,-3.3932533E-3,9.3952855E-3,-4.0103747E-3,-4.920682E-3,-8.280779E-3,-1.2108997E-2,-7.894161E-3,-1.1505271E-2,1.1412892E-2,-1.4430203E-2,-1.2434485E-2,-1.3858697E-2,-9.152479E-3],"split_indices":[6,30,6,22,2,38,6,17,0,0,0,37,2,36,6,0,0,61,58,5,12,37,0,0,6,37,64,0,7,0,0,35,29,0,59,34,6,66,35,0,36,0,0,0,0,0,0,0,0,0,0,0,0,0,0,0,0,0,0,0,0,0,0,0,0,0,0,0,0,0,0,0,0],"split_type":[0,0,0,0,0,0,0,0,0,0,0,0,0,0,0,0,0,0,0,0,0,0,0,0,0,0,0,0,0,0,0,0,0,0,0,0,0,0,0,0,0,0,0,0,0,0,0,0,0,0,0,0,0,0,0,0,0,0,0,0,0,0,0,0,0,0,0,0,0,0,0,0,0],"sum_hessian":[2.15429E5,5.2942E4,1.62487E5,4.8619E4,4.323E3,1.46866E5,1.5621E4,4.7557E4,1.062E3,2.788E3,1.535E3,7.0285E4,7.6581E4,7.005E3,8.616E3,4.7274E4,2.83E2,6.6942E4,3.343E3,6.8418E4,8.163E3,4.159E3,2.846E3,2.731E3,5.885E3,3.95E4,2.7442E4,3.1E3,2.43E2,6.374E4,4.678E3,4.53E3,3.633E3,4.059E3,1E2,1.537E3,1.309E3,6.88E2,2.043E3,1.196E3,4.689E3,1.031E3,3.8469E4,2.7137E4,3.05E2,1.302E3,1.798E3,1.3E2,1.13E2,3.0617E4,3.3123E4,3.395E3,1.283E3,1.544E3,2.986E3,8.65E2,2.768E3,1.166E3,2.893E3,9.7E1,3E0,6.9E1,1.468E3,4.93E2,8.16E2,2.16E2,4.72E2,2.042E3,1E0,6.9E1,1.127E3,4.671E3,1.8E1],"tree_param":{"num_deleted":"0","num_feature":"67","num_nodes":"73","size_leaf_vector":"0"}},{"base_weights":[5.2944254E-2,2.7494174E-1,-1.9632591E-2,2.731104E-1,2.9557785E-1,-3.7462984E-3,-2.1657962E-1,2.727374E-1,2.897502E-1,3.0146772E-1,2.8454864E-1,-1.1930754E-2,2.0367755E-1,-1.592184E-1,-2.5074142E-1,2.7256805E-1,3.0047858E-1,-7.0678376E-2,3.1996646E-3,2.2124635E-1,9.222967E-2,-1.3841647E-1,-1.7816904E-1,-2.2879809E-1,-2.6309392E-1,-6.0857743E-2,-2.1666655E-1,3.0892657E-2,-3.1710647E-2,2.3575538E-1,1.7185044E-1,1.5242407E-1,-4.6914306E-2,-1.5772203E-1,-1.096866E-1,-1.6558038E-1,-2.0176083E-1,-2.1701904E-1,-2.3737168E-1,-2.634124E-1,-1.6815297E-1,-7.390354E-2,-1.7299585E-4,-3.786806E-1,-1.22887604E-1,4.79718E-2,-1.8926352E-2,-4.275911E-3,-7.254325E-2,2.381447E-1,7.141813E-2,1.8497007E-1,-3.1230727E-1,-2.2329372E-1,1.7869797E-1,-2.0073785E-1,9.603527E-2,-1.3827802E-1,-3.1673074E-1,-1.1436714E-1,4.8570174E-1,-1.292785E-1,-1.8438885E-1,-2.0451868E-1,7.481873E-4,-2.173645E-1,-1.0402262E-2,-2.7809498E-1,-2.3401065E-1,-2.5599265E-1,-2.6669878E-1,-2.445959E-2,-2.0484057E-1],"categories":[],"categories_nodes":[],"categories_segments":[],"categories_sizes":[],"default_left":[1,1,1,1,1,1,1,1,0,0,0,1,1,1,1,0,0,1,1,1,1,1,1,1,1,1,1,1,1,1,1,1,1,1,1,1,1,1,1,1,1,0,0,0,0,0,0,0,0,0,0,0,0,0,0,0,0,0,0,0,0,0,0,0,0,0,0,0,0,0,0,0,0],"id":12,"left_children":[1,3,5,7,9,11,13,15,-1,-1,-1,17,19,21,23,-1,-1,25,27,29,31,33,35,37,39,41,43,45,47,49,51,53,55,57,59,61,63,65,67,69,71,-1,-1,-1,-1,-1,-1,-1,-1,-1,-1,-1,-1,-1,-1,-1,-1,-1,-1,-1,-1,-1,-1,-1,-1,-1,-1,-1,-1,-1,-1,-1,-1],"loss_changes":[3.474032E3,1.927002E0,5.0840982E2,2.241211E-1,1.9473267E-1,2.5527487E2,2.37276E1,1.4233398E-1,0E0,0E0,0E0,1.2858594E2,1.1155899E1,1.761116E0,1.9998474E0,0E0,0E0,4.2462936E1,1.1121347E2,3.4927216E0,6.5318103E0,1.1829529E0,6.695633E-1,2.2570801E-1,1.0253906E-1,2.1977837E1,2.8319733E1,5.458311E1,5.7004917E1,1.4782257E0,7.191036E0,5.410038E0,5.208684E0,3.9507637E0,2.4883728E0,1.0337944E0,4.575615E-1,8.111191E-2,1.5090942E-1,4.9682617E-2,9.515321E-2,0E0,0E0,0E0,0E0,0E0,0E0,0E0,0E0,0E0,0E0,0E0,0E0,0E0,0E0,0E0,0E0,0E0,0E0,0E0,0E0,0E0,0E0,0E0,0E0,0E0,0E0,0E0,0E0,0E0,0E0,0E0,0E0],"parents":[2147483647,0,0,1,1,2,2,3,3,4,4,5,5,6,6,7,7,11,11,12,12,13,13,14,14,17,17,18,18,19,19,20,20,21,21,22,22,23,23,24,24,25,25,26,26,27,27,28,28,29,29,30,30,31,31,32,32,33,33,34,34,35,35,36,36,37,37,38,38,39,39,40,40],"right_children":[2,4,6,8,10,12,14,16,-1,-1,-1,18,20,22,24,-1,-1,26,28,30,32,34,36,38,40,42,44,46,48,50,52,54,56,58,60,62,64,66,68,70,72,-1,-1,-1,-1,-1,-1,-1,-1,-1,-1,-1,-1,-1,-1,-1,-1,-1,-1,-1,-1,-1,-1,-1,-1,-1,-1,-1,-1,-1,-1,-1,-1],"split_conditions":[1.5E0,9.268184E-1,3.5E0,5E-1,5E-1,5E-1,7.5E0,5E-1,1.448751E-2,1.5073386E-2,1.4227432E-2,4.5E0,5E-1,4.5E0,2.25E1,1.3628403E-2,1.5023929E-2,6.5E0,1.5E0,4.9390245E-2,1.35E1,5E-1,3.5E0,1.05E1,4.5E0,5E-1,2.9166666E-1,2.1980675E-1,5E-1,4E0,3.4848487E-1,5.5E-1,2.5E0,5E-1,2.111111E-1,1.5E0,6.125E0,6.05E1,5E-1,5.45E1,6.75E0,-3.695177E-3,-8.649792E-6,-1.893403E-2,-6.14438E-3,2.39859E-3,-9.463176E-4,-2.1379556E-4,-3.6271624E-3,1.1907235E-2,3.5709066E-3,9.2485035E-3,-1.5615364E-2,-1.1164687E-2,8.934899E-3,-1.0036892E-2,4.8017637E-3,-6.9139013E-3,-1.5836537E-2,-5.7183574E-3,2.4285087E-2,-6.463925E-3,-9.2194425E-3,-1.0225934E-2,3.7409365E-5,-1.0868225E-2,-5.201131E-4,-1.3904749E-2,-1.1700532E-2,-1.2799633E-2,-1.3334939E-2,-1.2229795E-3,-1.0242029E-2],"split_indices":[6,30,6,22,2,1,6,17,0,0,0,64,19,6,6,0,0,37,61,46,32,36,61,6,36,36,46,46,4,37,8,30,65,4,8,0,30,64,0,6,30,0,0,0,0,0,0,0,0,0,0,0,0,0,0,0,0,0,0,0,0,0,0,0,0,0,0,0,0,0,0,0,0],"split_type":[0,0,0,0,0,0,0,0,0,0,0,0,0,0,0,0,0,0,0,0,0,0,0,0,0,0,0,0,0,0,0,0,0,0,0,0,0,0,0,0,0,0,0,0,0,0,0,0,0,0,0,0,0,0,0,0,0,0,0,0,0,0,0,0,0,0,0,0,0,0,0,0,0],"sum_hessian":[2.15618E5,5.3123E4,1.62495E5,4.8806E4,4.317E3,1.50367E5,1.2128E4,4.7753E4,1.053E3,2.797E3,1.52E3,1.4466E5,5.707E3,4.529E3,7.599E3,4.7474E4,2.79E2,2.9626E4,1.15034E5,4.929E3,7.78E2,2.163E3,2.366E3,2.744E3,4.855E3,2.776E4,1.866E3,6.4148E4,5.0886E4,3.807E3,1.122E3,5.43E2,2.35E2,1.291E3,8.72E2,1.548E3,8.18E2,1.167E3,1.577E3,4.837E3,1.8E1,2.2848E4,4.912E3,6.83E2,1.183E3,4.7771E4,1.6377E4,3.0437E4,2.0449E4,3.752E3,5.5E1,1.093E3,2.9E1,3.5E1,5.08E2,1.13E2,1.22E2,1.152E3,1.39E2,8.66E2,6E0,5.31E2,1.017E3,8.07E2,1.1E1,1.165E3,2E0,1.14E2,1.463E3,1.509E3,3.328E3,4E0,1.4E1],"tree_param":{"num_deleted":"0","num_feature":"67","num_nodes":"73","size_leaf_vector":"0"}},{"base_weights":[5.0144088E-2,2.6121846E-1,-1.8668707E-2,2.5946102E-1,2.8074816E-1,-1.306262E-3,-1.8220077E-1,2.5910202E-1,2.7504247E-1,2.8635976E-1,2.702755E-1,-9.039578E-3,1.9128394E-1,-1.2381169E-1,-2.3047009E-1,2.5894478E-1,2.850959E-1,6.803558E-3,-5.9641216E-2,2.1632776E-1,1.1860118E-1,-1.2521549E-1,3.5289022E-1,-1.9688874E-1,-2.4453427E-1,2.1727161E-2,-6.22492E-2,-3.1800948E-2,-9.747945E-2,2.2376756E-1,1.5242466E-1,3.9975975E-2,1.855718E-1,-1.4267549E-1,-9.918786E-2,-1.6828147E-1,-2.0636584E-1,-2.2840512E-1,-2.5043252E-1,8.901598E-2,1.1281148E-2,-7.5538404E-2,6.929262E-2,-1.2428438E-1,-1.7987885E-2,-6.012982E-2,-1.5150322E-1,1.7174962E-1,2.2820762E-1,7.985936E-2,1.8892932E-1,2.3014879E-1,6.405172E-4,1.9120647E-1,-3.2213324E-1,-1.23646446E-1,-3.1887987E-1,-6.610068E-2,-1.290064E-1,-2.2031645E-1,-1.4517957E-1,-2.0199157E-1,-2.3956595E-1,-2.246582E-1,-2.4563614E-1,-2.4319257E-1,-2.533109E-1],"categories":[],"categories_nodes":[],"categories_segments":[],"categories_sizes":[],"default_left":[1,1,1,1,1,1,1,1,0,0,0,1,1,1,1,0,0,1,1,1,1,1,0,1,1,1,1,1,1,1,1,1,1,1,1,1,1,1,1,0,0,0,0,0,0,0,0,0,0,0,0,0,0,0,0,0,0,0,0,0,0,0,0,0,0,0,0],"id":13,"left_children":[1,3,5,7,9,11,13,15,-1,-1,-1,17,19,21,23,-1,-1,25,27,29,31,33,-1,35,37,39,41,43,45,47,49,51,53,55,57,59,61,63,65,-1,-1,-1,-1,-1,-1,-1,-1,-1,-1,-1,-1,-1,-1,-1,-1,-1,-1,-1,-1,-1,-1,-1,-1,-1,-1,-1,-1],"loss_changes":[3.1307285E3,1.7460938E0,4.6153918E2,2.006836E-1,1.789856E-1,2.188663E2,4.3944153E1,1.2011719E-1,0E0,0E0,0E0,1.1326298E2,1.0300613E1,4.770691E0,3.985199E0,0E0,0E0,1.10878685E2,3.548368E1,1.9712677E0,7.6592655E0,3.186493E0,0E0,6.5010834E-1,5.150757E-1,6.218737E1,3.3430397E1,2.4792362E1,2.8802612E1,8.32901E-1,1.1584072E0,5.019291E0,2.3101425E0,1.4086754E1,2.7845688E0,7.301483E-1,2.2652435E-1,4.953766E-2,2.9937744E-2,0E0,0E0,0E0,0E0,0E0,0E0,0E0,0E0,0E0,0E0,0E0,0E0,0E0,0E0,0E0,0E0,0E0,0E0,0E0,0E0,0E0,0E0,0E0,0E0,0E0,0E0,0E0,0E0],"parents":[2147483647,0,0,1,1,2,2,3,3,4,4,5,5,6,6,7,7,11,11,12,12,13,13,14,14,17,17,18,18,19,19,20,20,21,21,23,23,24,24,25,25,26,26,27,27,28,28,29,29,30,30,31,31,32,32,33,33,34,34,35,35,36,36,37,37,38,38],"right_children":[2,4,6,8,10,12,14,16,-1,-1,-1,18,20,22,24,-1,-1,26,28,30,32,34,-1,36,38,40,42,44,46,48,50,52,54,56,58,60,62,64,66,-1,-1,-1,-1,-1,-1,-1,-1,-1,-1,-1,-1,-1,-1,-1,-1,-1,-1,-1,-1,-1,-1,-1,-1,-1,-1,-1,-1],"split_conditions":[1.5E0,9.268184E-1,2.5E0,5E-1,5E-1,5E-1,5.5E0,5E-1,1.3752124E-2,1.4317988E-2,1.3513776E-2,2.5E0,4.9390245E-2,5E-1,1.15E1,1.2947239E-2,1.4254795E-2,3.114224E-1,9.691651E-1,5E-1,3.774929E-2,5E-1,1.7644512E-2,1.5E0,2.95E1,1.5E0,5E-1,1.5E0,5E-1,1.011111E0,1.8898809E-1,5E-1,2.3E1,5E-1,1.5E0,1.5E0,9.5454544E-2,6.9711536E-2,5.8E1,4.4507994E-3,5.640574E-4,-3.7769203E-3,3.464631E-3,-6.214219E-3,-8.993942E-4,-3.006491E-3,-7.5751613E-3,8.587481E-3,1.1410381E-2,3.9929682E-3,9.446466E-3,1.1507439E-2,3.2025862E-5,9.560323E-3,-1.6106663E-2,-6.1823223E-3,-1.5943995E-2,-3.305034E-3,-6.45032E-3,-1.1015823E-2,-7.2589787E-3,-1.0099579E-2,-1.19782975E-2,-1.1232911E-2,-1.2281807E-2,-1.2159629E-2,-1.2665545E-2],"split_indices":[6,30,6,22,2,1,6,17,0,0,0,61,46,1,6,0,0,46,30,51,11,36,0,0,6,34,48,65,4,62,39,0,34,4,4,66,15,46,6,0,0,0,0,0,0,0,0,0,0,0,0,0,0,0,0,0,0,0,0,0,0,0,0,0,0,0,0],"split_type":[0,0,0,0,0,0,0,0,0,0,0,0,0,0,0,0,0,0,0,0,0,0,0,0,0,0,0,0,0,0,0,0,0,0,0,0,0,0,0,0,0,0,0,0,0,0,0,0,0,0,0,0,0,0,0,0,0,0,0,0,0,0,0,0,0,0,0],"sum_hessian":[2.15545E5,5.2993E4,1.62552E5,4.8631E4,4.362E3,1.46951E5,1.5601E4,4.7553E4,1.078E3,2.823E3,1.539E3,1.41279E5,5.672E3,7.062E3,8.539E3,4.7278E4,2.75E2,1.07593E5,3.3686E4,4.217E3,1.455E3,7.042E3,2E1,2.525E3,6.014E3,8.8473E4,1.912E4,1.9408E4,1.4278E4,3.775E3,4.42E2,6.7E2,7.85E2,4.212E3,2.83E3,6.33E2,1.892E3,1.621E3,4.393E3,1.1888E4,7.6585E4,1.7366E4,1.754E3,2.521E3,1.6887E4,8.443E3,5.835E3,3E2,3.475E3,1.49E2,2.93E2,1.14E2,5.56E2,7.77E2,8E0,3.803E3,4.09E2,1.343E3,1.487E3,1.92E2,4.41E2,1.678E3,2.14E2,1.343E3,2.78E2,1.274E3,3.119E3],"tree_param":{"num_deleted":"0","num_feature":"67","num_nodes":"67","size_leaf_vector":"0"}},{"base_weights":[4.800481E-2,2.4813154E-1,-1.7292973E-2,2.4649072E-1,2.6676342E-1,-6.495005E-4,-1.7393266E-1,2.4634412E-1,2.7115795E-1,2.721864E-1,2.5671044E-1,-8.0473665E-3,1.8475801E-1,-1.2095204E-1,-2.2381973E-1,2.4572456E-1,2.5164038E-1,-6.320423E-2,6.12883E-3,2.064748E-1,1.2001337E-1,-1.0734038E-1,-1.6101426E-1,-1.992013E-1,-2.3508061E-1,2.4601996E-1,2.5898677E-1,-5.3157784E-2,-2.0721951E-1,-1.249259E-3,1.5412639E-1,2.1493822E-1,1.3216825E-1,1.9776922E-1,7.757818E-2,-1.2805055E-1,-7.631916E-2,-1.6480145E-1,-2.9735273E-2,-1.8240616E-1,-2.0816286E-1,-2.2789262E-1,-2.4069196E-1,-3.9782144E-2,-1.1745243E-1,-3.2025635E-1,-7.122759E-2,-3.376052E-2,3.092902E-2,3.2577854E-1,-3.0309016E-1,2.1770798E-1,5.7947095E-2,4.118741E-2,1.7910524E-1,1.6358513E-1,2.5868884E-1,8.785888E-2,-3.267422E-1,-1.06811926E-1,-3.1757697E-1,7.2239414E-2,-8.5173376E-2,-1.6181171E-1,-2.4908671E-1,-7.3456705E-2,4.2217037E-1,-1.8383618E-1,1.7958802E-1,-2.0511948E-1,-2.583651E-1,-2.2879675E-1,-1.1836831E-1,-2.4081028E-1,6.156312E-2],"categories":[],"categories_nodes":[],"categories_segments":[],"categories_sizes":[],"default_left":[1,1,1,1,1,1,1,1,0,0,0,1,1,1,1,0,1,1,1,1,1,1,1,1,1,0,0,1,1,1,1,1,1,1,1,1,1,1,1,1,1,1,1,0,0,0,0,0,0,0,0,0,0,0,0,0,0,0,0,0,0,0,0,0,0,0,0,0,0,0,0,0,0,0,0],"id":14,"left_children":[1,3,5,7,9,11,13,15,-1,-1,-1,17,19,21,23,-1,25,27,29,31,33,35,37,39,41,-1,-1,43,45,47,49,51,53,55,57,59,61,63,65,67,69,71,73,-1,-1,-1,-1,-1,-1,-1,-1,-1,-1,-1,-1,-1,-1,-1,-1,-1,-1,-1,-1,-1,-1,-1,-1,-1,-1,-1,-1,-1,-1,-1,-1],"loss_changes":[2.8162397E3,1.5551758E0,4.236211E2,1.0961914E-1,1.6342163E-1,2.0147324E2,4.1222992E1,9.692383E-2,0E0,0E0,0E0,1.104466E2,7.899704E0,4.11129E0,2.181244E0,0E0,1.4416504E-1,4.1775223E1,1.2270249E2,2.6248627E0,4.6634674E0,3.6226654E0,9.486847E-1,3.4267426E-1,1.6732788E-1,0E0,0E0,2.3213982E1,2.8922844E1,1.1197745E2,4.188798E2,1.6336517E0,1.845962E0,9.9892426E-1,3.848711E0,1.3607754E1,2.986783E0,4.294052E-1,1.1176991E0,4.9269676E-1,1.9787598E-1,2.1393585E-1,1.2483215E-1,0E0,0E0,0E0,0E0,0E0,0E0,0E0,0E0,0E0,0E0,0E0,0E0,0E0,0E0,0E0,0E0,0E0,0E0,0E0,0E0,0E0,0E0,0E0,0E0,0E0,0E0,0E0,0E0,0E0,0E0,0E0,0E0],"parents":[2147483647,0,0,1,1,2,2,3,3,4,4,5,5,6,6,7,7,11,11,12,12,13,13,14,14,16,16,17,17,18,18,19,19,20,20,21,21,22,22,23,23,24,24,27,27,28,28,29,29,30,30,31,31,32,32,33,33,34,34,35,35,36,36,37,37,38,38,39,39,40,40,41,41,42,42],"right_children":[2,4,6,8,10,12,14,16,-1,-1,-1,18,20,22,24,-1,26,28,30,32,34,36,38,40,42,-1,-1,44,46,48,50,52,54,56,58,60,62,64,66,68,70,72,74,-1,-1,-1,-1,-1,-1,-1,-1,-1,-1,-1,-1,-1,-1,-1,-1,-1,-1,-1,-1,-1,-1,-1,-1,-1,-1,-1,-1,-1,-1,-1,-1],"split_conditions":[1.5E0,9.268184E-1,2.5E0,5E-1,5E-1,5E-1,6.5E0,5E-1,1.3557898E-2,1.360932E-2,1.2835522E-2,4.5E0,6.5076225E-2,4.5E0,1.55E1,1.2286228E-2,6.0555553E-1,6.5E0,3.5E0,5E-1,5E-1,5E-1,3.0952382E-1,8.5E0,6.4E1,1.2300998E-2,1.2949339E-2,3.5E0,3.5E0,5E-1,5E-1,4E0,1.8898809E-1,1.5E0,3.4848487E-1,5E-1,1.5E0,4E0,1.25E-1,3.5E0,3.5897434E-1,6.25E1,2.9166666E-1,-1.9891073E-3,-5.8726217E-3,-1.6012818E-2,-3.5613794E-3,-1.6880261E-3,1.546451E-3,1.6288927E-2,-1.5154508E-2,1.0885399E-2,2.8973548E-3,2.0593705E-3,8.955262E-3,8.179257E-3,1.2934442E-2,4.392944E-3,-1.633711E-2,-5.340596E-3,-1.5878849E-2,3.6119707E-3,-4.258669E-3,-8.0905855E-3,-1.2454336E-2,-3.6728352E-3,2.110852E-2,-9.191809E-3,8.979402E-3,-1.0255974E-2,-1.2918255E-2,-1.14398375E-2,-5.9184157E-3,-1.2040514E-2,3.078156E-3],"split_indices":[6,30,6,17,2,1,6,16,0,0,0,64,46,6,6,0,30,37,5,51,0,36,44,6,6,0,0,5,64,0,0,37,39,4,8,4,34,37,39,36,46,61,44,0,0,0,0,0,0,0,0,0,0,0,0,0,0,0,0,0,0,0,0,0,0,0,0,0,0,0,0,0,0,0,0],"split_type":[0,0,0,0,0,0,0,0,0,0,0,0,0,0,0,0,0,0,0,0,0,0,0,0,0,0,0,0,0,0,0,0,0,0,0,0,0,0,0,0,0,0,0,0,0,0,0,0,0,0,0,0,0,0,0,0,0,0,0,0,0,0,0,0,0,0,0,0,0,0,0,0,0,0,0],"sum_hessian":[2.15508E5,5.3017E4,1.62491E5,4.8739E4,4.278E3,1.46885E5,1.5606E4,4.8462E4,2.77E2,2.762E3,1.516E3,1.4125E5,5.635E3,7.57E3,8.036E3,4.3429E4,5.033E3,2.888E4,1.1237E5,4.218E3,1.417E3,5.653E3,1.917E3,2.528E3,5.508E3,2.871E3,2.162E3,2.6998E4,1.882E3,1.07035E5,5.335E3,3.785E3,4.33E2,4.99E2,9.18E2,3.388E3,2.265E3,1.863E3,5.4E1,8.87E2,1.641E3,2.433E3,3.075E3,2.235E4,4.648E3,1.027E3,8.55E2,5.3242E4,5.3793E4,3.879E3,1.456E3,3.719E3,6.6E1,1.48E2,2.85E2,3.22E2,1.77E2,8.96E2,2.2E1,3.048E3,3.4E2,1.27E2,2.138E3,1.802E3,6.1E1,5E1,4E0,8.84E2,3E0,1.552E3,8.9E1,2.412E3,2.1E1,3.074E3,1E0],"tree_param":{"num_deleted":"0","num_feature":"67","num_nodes":"75","size_leaf_vector":"0"}},{"base_weights":[4.5655545E-2,8.981305E-2,-2.028905E-2,1.1928431E-1,-6.244343E-2,2.7696345E-2,-1.9553235E-1,1.9842535E-1,1.8130234E-2,-7.198009E-2,2.3582725E-1,4.2816825E-2,-2.6496585E-2,1.7330682E-2,-2.001722E-1,5.252107E-2,2.0994106E-1,1.1944775E-2,1.8936475E-1,-6.0296226E-2,-1.356584E-1,2.3849781E-1,-4.355417E-2,6.276404E-2,-1.2650224E-3,-2.1289025E-2,-3.0830324E-1,2.8852683E-1,-3.5566717E-1,-1.77155E-1,-2.5887212E-1,8.771062E-2,-2.7992043E-1,2.1743634E-1,1.3266632E-1,4.5423146E-2,-2.4777832E-2,1.9366659E-1,8.735288E-4,-4.3951806E-2,-9.565688E-2,-1.2020604E-1,-2.6428533E-1,2.4551626E-1,1.2638155E-1,-2.7357924E-1,1.9735944E-1,5.4072212E-2,1.612864E-1,8.662572E-3,-2.4080586E-1,-1.3645907E-2,-1.71274E-1,4.640211E-1,-4.083873E-1,-3.6339557E-1,5.2045763E-2,-1.3623746E-1,-2.1391532E-1,-1.7930822E-1,-3.8044426E-1,1.783749E-2,3.8005623E-1,-3.5318044E-1,8.5179985E-2,2.1294646E-1,3.186203E-1,5.7997406E-2,2.3731881E-1,-2.0816594E-2,8.160915E-2,-7.0827683E-3,-1.1456212E-1,3.461683E-2,1.9902056E-1,-1.9803682E-1,2.3288707E-1,-4.594771E-2,3.2111228E-1,-1.2111316E-1,-6.717485E-2,-1.253247E-1,3.0903615E-2,-2.9987288E-1,6.168226E-2,2.4678215E-1,-9.07678E-2,-8.108599E-2,2.1819215E-1,9.523613E-2,2.7036589E-2,1.8613167E-1,6.8305165E-2,-3.492421E-3,1.18067354E-1,-1.2951967E-1,-3.9768115E-1,1.3870821E-2,-5.8608398E-2,-2.2309615E-1,-9.348514E-2,4.8354068E-1,-3.353933E-1,-1.2141832E-1,-1.6989228E-1,-1.9254E-1,-2.2484462E-1,-3.3133078E-1,-7.951365E-2,-4.0113357E-1,-1.6839167E-1],"categories":[],"categories_nodes":[],"categories_segments":[],"categories_sizes":[],"default_left":[1,1,1,1,1,1,1,1,1,1,1,1,1,1,1,1,1,1,1,1,1,1,1,1,1,1,0,1,1,1,1,1,1,1,1,1,1,1,1,1,1,1,1,1,1,0,0,1,1,1,1,1,1,1,0,0,0,1,1,1,1,0,0,0,0,0,0,0,0,0,0,0,0,0,0,0,0,0,0,0,0,0,0,0,0,0,0,0,0,0,0,0,0,0,0,0,0,0,0,0,0,0,0,0,0,0,0,0,0,0,0],"id":15,"left_children":[1,3,5,7,9,11,13,15,17,19,21,23,25,27,29,31,33,35,37,39,41,43,45,47,49,51,-1,53,55,57,59,61,63,65,67,69,71,73,75,77,79,81,83,85,87,-1,-1,89,91,93,95,97,99,101,-1,-1,-1,103,105,107,109,-1,-1,-1,-1,-1,-1,-1,-1,-1,-1,-1,-1,-1,-1,-1,-1,-1,-1,-1,-1,-1,-1,-1,-1,-1,-1,-1,-1,-1,-1,-1,-1,-1,-1,-1,-1,-1,-1,-1,-1,-1,-1,-1,-1,-1,-1,-1,-1,-1,-1],"loss_changes":[6.287092E2,5.802683E2,7.281679E2,8.673375E2,5.9671944E1,5.5704693E1,1.8387634E1,1.0212109E2,5.0370518E1,1.5112312E1,4.953575E-1,4.6735413E1,2.1756836E1,4.0362537E1,2.456726E1,5.2059338E1,3.260254E1,5.6433643E1,1.3442421E0,9.921497E0,6.2291336E0,4.7571945E-1,4.4190663E-1,3.1326447E1,3.9380455E1,1.6690853E1,0E0,2.844182E1,5.482769E-1,1.965857E1,4.9543335E1,8.2171455E1,1.1424416E1,2.3263428E1,3.893264E1,5.7557304E1,3.4778263E1,1.3734703E0,1.7998163E0,8.574007E0,3.927414E0,2.1804428E0,3.9278278E0,2.799492E-1,7.79601E-1,0E0,0E0,3.7420647E1,6.83918E0,2.114579E1,1.1453346E1,1.714498E1,2.825163E0,3.0489655E0,0E0,0E0,0E0,3.0700378E0,1.5670166E0,4.7034187E1,8.829712E0,0E0,0E0,0E0,0E0,0E0,0E0,0E0,0E0,0E0,0E0,0E0,0E0,0E0,0E0,0E0,0E0,0E0,0E0,0E0,0E0,0E0,0E0,0E0,0E0,0E0,0E0,0E0,0E0,0E0,0E0,0E0,0E0,0E0,0E0,0E0,0E0,0E0,0E0,0E0,0E0,0E0,0E0,0E0,0E0,0E0,0E0,0E0,0E0,0E0,0E0],"parents":[2147483647,0,0,1,1,2,2,3,3,4,4,5,5,6,6,7,7,8,8,9,9,10,10,11,11,12,12,13,13,14,14,15,15,16,16,17,17,18,18,19,19,20,20,21,21,22,22,23,23,24,24,25,25,27,27,28,28,29,29,30,30,31,31,32,32,33,33,34,34,35,35,36,36,37,37,38,38,39,39,40,40,41,41,42,42,43,43,44,44,47,47,48,48,49,49,50,50,51,51,52,52,53,53,57,57,58,58,59,59,60,60],"right_children":[2,4,6,8,10,12,14,16,18,20,22,24,26,28,30,32,34,36,38,40,42,44,46,48,50,52,-1,54,56,58,60,62,64,66,68,70,72,74,76,78,80,82,84,86,88,-1,-1,90,92,94,96,98,100,102,-1,-1,-1,104,106,108,110,-1,-1,-1,-1,-1,-1,-1,-1,-1,-1,-1,-1,-1,-1,-1,-1,-1,-1,-1,-1,-1,-1,-1,-1,-1,-1,-1,-1,-1,-1,-1,-1,-1,-1,-1,-1,-1,-1,-1,-1,-1,-1,-1,-1,-1,-1,-1,-1,-1,-1],"split_conditions":[5E-1,5E-1,2.5E0,5E-1,5E-1,2.5E0,4.5E0,1.5E0,5E-1,3.1414473E-1,2.111111E-1,1.7519179E-1,6.5E0,2.5E-1,4E0,6E0,1.1791445E0,9.2403847E-1,4E0,2.5E0,4E0,1.3392855E-1,2.6136366E-1,5E-1,4E0,7.55E2,-1.5415162E-2,1.5E0,2.9166666E-1,3.5E0,2.5E0,4E0,1.5E0,4E0,4E0,3.5E0,1.371473E-1,9.215385E-1,2.9285717E-1,4E0,4.5E0,5E-1,3.5E0,4E0,4.5E0,-1.3678962E-2,9.867973E-3,5E-1,4.8809525E-2,5E-1,1.2361109E0,9.703574E-1,5.5E0,1.25E-1,-2.0419365E-2,-1.816978E-2,2.6022883E-3,1.5476191E-1,4.05E1,1.5E0,3.0952382E-1,8.9187454E-4,1.9002812E-2,-1.7659022E-2,4.258999E-3,1.0647323E-2,1.5931016E-2,2.8998703E-3,1.1865941E-2,-1.0408297E-3,4.0804576E-3,-3.541384E-4,-5.728106E-3,1.7308416E-3,9.951028E-3,-9.901841E-3,1.1644354E-2,-2.2973854E-3,1.6055614E-2,-6.055658E-3,-3.3587427E-3,-6.266235E-3,1.5451808E-3,-1.4993644E-2,3.0841131E-3,1.2339108E-2,-4.5383903E-3,-4.0542996E-3,1.0909608E-2,4.7618067E-3,1.3518295E-3,9.306584E-3,3.4152584E-3,-1.7462105E-4,5.903368E-3,-6.4759837E-3,-1.9884057E-2,6.935411E-4,-2.93042E-3,-1.1154807E-2,-4.6742572E-3,2.4177035E-2,-1.6769666E-2,-6.070916E-3,-8.494615E-3,-9.627E-3,-1.1242231E-2,-1.656654E-2,-3.9756824E-3,-2.0056678E-2,-8.419584E-3],"split_indices":[0,17,5,16,1,61,32,3,1,46,43,46,37,30,5,37,30,30,37,61,37,14,12,1,37,61,0,34,46,0,34,5,35,5,5,3,12,62,58,5,3,25,34,37,65,0,0,16,46,54,62,30,33,46,0,0,0,26,32,65,46,0,0,0,0,0,0,0,0,0,0,0,0,0,0,0,0,0,0,0,0,0,0,0,0,0,0,0,0,0,0,0,0,0,0,0,0,0,0,0,0,0,0,0,0,0,0,0,0,0,0],"split_type":[0,0,0,0,0,0,0,0,0,0,0,0,0,0,0,0,0,0,0,0,0,0,0,0,0,0,0,0,0,0,0,0,0,0,0,0,0,0,0,0,0,0,0,0,0,0,0,0,0,0,0,0,0,0,0,0,0,0,0,0,0,0,0,0,0,0,0,0,0,0,0,0,0,0,0,0,0,0,0,0,0,0,0,0,0,0,0,0,0,0,0,0,0,0,0,0,0,0,0,0,0,0,0,0,0,0,0,0,0,0,0],"sum_hessian":[2.15905E5,1.29314E5,8.6591E4,1.08343E5,2.0971E4,6.7978E4,1.8613E4,6.0785E4,4.7558E4,2.0322E4,6.49E2,5.3149E4,1.4829E4,3.97E2,1.8216E4,4.447E3,5.6338E4,4.5901E4,1.657E3,1.7173E4,3.149E3,6.43E2,6E0,3.6591E4,1.6558E4,1.4561E4,2.68E2,2.3E2,1.67E2,1.3088E4,5.128E3,4.022E3,4.25E2,5.1355E4,4.983E3,2.4011E4,2.189E4,1.62E3,3.7E1,1.1746E4,5.427E3,2.813E3,3.36E2,6.04E2,3.9E1,3E0,3E0,3.3626E4,2.965E3,1.59E4,6.58E2,1.3856E4,7.05E2,1.84E2,4.6E1,1.64E2,3E0,6.196E3,6.892E3,3.101E3,2.027E3,3.247E3,7.75E2,3.54E2,7.1E1,4.9176E4,2.179E3,2.909E3,2.074E3,8.483E3,1.5528E4,1.8287E4,3.603E3,5.3E1,1.567E3,2E1,1.7E1,1.1683E4,6.3E1,2.864E3,2.563E3,2.721E3,9.2E1,3.03E2,3.3E1,6.02E2,2E0,1.2E1,2.7E1,1.3329E4,2.0297E4,2.339E3,6.26E2,1.4311E4,1.589E3,3.86E2,2.72E2,8.596E3,5.26E3,4.22E2,2.83E2,1.8E2,4E0,4.305E3,1.891E3,2.338E3,4.554E3,1.228E3,1.873E3,1.846E3,1.81E2],"tree_param":{"num_deleted":"0","num_feature":"67","num_nodes":"111","size_leaf_vector":"0"}},{"base_weights":[4.295875E-2,2.2636744E-1,-1.6878549E-2,2.2448774E-1,2.4750338E-1,-1.8911797E-3,-1.5758403E-1,2.2321986E-1,2.3537551E-1,2.520068E-1,2.3874219E-1,-8.496075E-3,1.6534403E-1,-1.0750414E-1,-1.9849628E-1,2.2298314E-1,2.607032E-1,2.2961657E-1,2.4279292E-1,2.508097E-1,2.72345E-1,-3.499792E-2,1.7790347E-2,1.7943735E-1,7.6922014E-2,-1.0863E-1,2.9293603E-1,-1.6810332E-1,-2.1085554E-1,2.3137735E-1,2.228083E-1,-1.1149505E-1,-2.6759664E-2,9.162623E-3,1.3889472E-1,1.5796211E-1,2.0271595E-1,-1.2237286E-2,1.558405E-1,-1.2497438E-1,-8.4254585E-2,3.3344766E-1,-2.383925E-1,-1.4129315E-1,-1.7728198E-1,-2.0071909E-1,-2.1652977E-1,-3.7388787E-2,-2.5607884E-1,-1.067598E-2,-6.6939056E-2,-2.6169395E-2,4.1198596E-2,2.7742442E-1,-2.1235879E-1,1.68844E-1,5.5837378E-2,2.0550139E-1,-1.4337903E-1,5.9153315E-2,-1.2719597E-1,1.767588E-1,-7.9459526E-2,-1.5688586E-1,-1.10562235E-1,-3.5351656E-2,-1.0038511E-1,-1.8750882E-1,-1.0779824E-1,-1.7763722E-1,2.405035E-1,-1.9701856E-1,-2.1482532E-1,-2.1680744E-1,-1.3541675E-1],"categories":[],"categories_nodes":[],"categories_segments":[],"categories_sizes":[],"default_left":[1,1,1,1,1,1,1,1,1,1,0,1,1,1,1,1,0,0,0,0,0,1,1,1,1,1,1,1,1,0,0,1,1,1,1,1,1,1,1,1,1,0,0,1,1,1,1,0,0,0,0,0,0,0,0,0,0,0,0,0,0,0,0,0,0,0,0,0,0,0,0,0,0,0,0],"id":16,"left_children":[1,3,5,7,9,11,13,15,17,19,-1,21,23,25,27,29,-1,-1,-1,-1,-1,31,33,35,37,39,41,43,45,-1,-1,47,49,51,53,55,57,59,61,63,65,-1,-1,67,69,71,73,-1,-1,-1,-1,-1,-1,-1,-1,-1,-1,-1,-1,-1,-1,-1,-1,-1,-1,-1,-1,-1,-1,-1,-1,-1,-1,-1,-1],"loss_changes":[2.3657173E3,2.0510254E0,3.4275427E2,6.201172E-1,1.1035156E-1,1.6225185E2,3.2035522E1,3.2885742E-1,1.6049194E-1,7.324219E-4,0E0,9.844264E1,6.941025E0,3.2043915E0,3.198761E0,1.2207031E-2,0E0,0E0,0E0,0E0,0E0,4.434252E1,7.4124916E1,2.374054E0,5.412835E0,2.7854462E0,5.0999117E-1,5.8867645E-1,3.083496E-1,0E0,0E0,7.3288765E1,4.1052513E1,7.496313E1,2.2963232E2,2.7777405E0,2.25251E0,2.9784472E0,2.022252E0,1.913826E0,2.220953E0,0E0,0E0,9.7204876E-1,3.178978E-1,7.298279E-2,5.8670044E-2,0E0,0E0,0E0,0E0,0E0,0E0,0E0,0E0,0E0,0E0,0E0,0E0,0E0,0E0,0E0,0E0,0E0,0E0,0E0,0E0,0E0,0E0,0E0,0E0,0E0,0E0,0E0,0E0],"parents":[2147483647,0,0,1,1,2,2,3,3,4,4,5,5,6,6,7,7,8,8,9,9,11,11,12,12,13,13,14,14,15,15,21,21,22,22,23,23,24,24,25,25,26,26,27,27,28,28,31,31,32,32,33,33,34,34,35,35,36,36,37,37,38,38,39,39,40,40,43,43,44,44,45,45,46,46],"right_children":[2,4,6,8,10,12,14,16,18,20,-1,22,24,26,28,30,-1,-1,-1,-1,-1,32,34,36,38,40,42,44,46,-1,-1,48,50,52,54,56,58,60,62,64,66,-1,-1,68,70,72,74,-1,-1,-1,-1,-1,-1,-1,-1,-1,-1,-1,-1,-1,-1,-1,-1,-1,-1,-1,-1,-1,-1,-1,-1,-1,-1,-1,-1],"split_conditions":[1.5E0,9.245014E-1,2.5E0,5E-1,5E-1,5E-1,5.5E0,5E-1,6.0555553E-1,5E-1,1.193711E-2,1.5E0,5E-1,5E-1,1.15E1,1.5E0,1.30351605E-2,1.1480829E-2,1.2139646E-2,1.2540485E-2,1.361725E-2,1.5E0,3.5E0,2.0526315E-1,1.909091E-1,5E-1,5E-1,1.5E0,3.95E1,1.1568868E-2,1.1140415E-2,1.5E0,3.0151516E-1,5E-1,5E-1,1.771242E0,3.4848487E-1,1.35E1,5E-1,5.5E0,3.5E0,1.6672384E-2,-1.1919625E-2,2.5E0,1.12E2,6.9711536E-2,4.5E0,-1.8694394E-3,-1.2803942E-2,-5.33799E-4,-3.3469528E-3,-1.3084698E-3,2.0599298E-3,1.3871222E-2,-1.061794E-2,8.4422E-3,2.791869E-3,1.027507E-2,-7.168952E-3,2.9576658E-3,-6.3597984E-3,8.83794E-3,-3.9729765E-3,-7.8442935E-3,-5.528112E-3,-1.7675828E-3,-5.0192554E-3,-9.375441E-3,-5.389912E-3,-8.881861E-3,1.2025176E-2,-9.850929E-3,-1.0741266E-2,-1.0840372E-2,-6.7708376E-3],"split_indices":[6,30,6,16,2,1,6,17,30,19,0,38,19,1,6,3,0,0,0,0,0,64,5,58,58,36,49,0,6,0,0,35,46,0,0,62,8,32,22,64,34,0,0,3,35,46,36,0,0,0,0,0,0,0,0,0,0,0,0,0,0,0,0,0,0,0,0,0,0,0,0,0,0,0,0],"split_type":[0,0,0,0,0,0,0,0,0,0,0,0,0,0,0,0,0,0,0,0,0,0,0,0,0,0,0,0,0,0,0,0,0,0,0,0,0,0,0,0,0,0,0,0,0,0,0,0,0,0,0,0,0,0,0,0,0,0,0,0,0,0,0,0,0,0,0,0,0,0,0,0,0,0,0],"sum_hessian":[2.1556E5,5.3026E4,1.62534E5,4.8706E4,4.32E3,1.46889E5,1.5645E4,4.3645E4,5.061E3,2.835E3,1.485E3,1.41309E5,5.58E3,7.036E3,8.609E3,4.3378E4,2.67E2,2.867E3,2.194E3,2.69E3,1.45E2,7.0366E4,7.0943E4,4.812E3,7.68E2,7.017E3,1.9E1,2.493E3,6.116E3,8.58E2,4.252E4,6.84E3,6.3526E4,6.6226E4,4.717E3,2.507E3,2.305E3,3.61E2,4.07E2,4.198E3,2.819E3,1.8E1,1E0,6.4E2,1.853E3,2.208E3,3.908E3,4.523E3,2.317E3,4.5367E4,1.8159E4,3.1493E4,3.4733E4,3.383E3,1.334E3,2.265E3,2.42E2,2.287E3,1.8E1,2.23E2,1.38E2,3.74E2,3.3E1,1.303E3,2.895E3,7E2,2.119E3,2.67E2,3.73E2,1.852E3,1E0,1.761E3,4.47E2,3.893E3,1.5E1],"tree_param":{"num_deleted":"0","num_feature":"67","num_nodes":"75","size_leaf_vector":"0"}},{"base_weights":[4.1187465E-2,2.1504585E-1,-1.5617866E-2,2.132719E-1,2.3502174E-1,-1.311222E-3,-1.4986375E-1,2.1206677E-1,2.2375247E-1,2.3950104E-1,2.2666644E-1,-7.6957745E-3,1.584511E-1,-1.0265671E-1,-1.8895921E-1,2.1183273E-1,2.480283E-1,2.1825819E-1,2.3083678E-1,2.377831E-1,2.524997E-1,-3.908746E-2,1.262169E-2,1.7105947E-1,7.8106545E-2,-8.5151434E-2,-1.2553233E-1,-1.6271693E-1,-2.0113581E-1,-3.1019423E-2,-1.6367479E-1,1.7381554E-2,-1.8015316E-1,1.7378414E-1,-9.7605935E-4,1.08101726E-1,-1.4590275E-1,-1.0701595E-1,-5.161261E-2,-1.11716956E-1,-1.5644772E-1,-1.3990566E-1,-1.7005597E-1,-1.8975964E-1,-2.0525604E-1,-1.2278995E-2,-7.91005E-2,-1.8976076E-1,2.0214038E-1,9.813349E-2,8.217867E-3,-3.6798108E-1,-8.746618E-2,1.844982E-1,1.3604625E-1,3.2773357E-2,-4.9352232E-1,-2.3882063E-1,1.2795824E-1,-3.844573E-2,-3.5264388E-1,-8.3796695E-2,-2.873542E-1,1.8005079E-1,-6.1617978E-2,-1.0352157E-1,-1.3541818E-1,-2.3850222E-1,-1.464667E-1,-1.138878E-1,-2.0321438E-1,-1.7036769E-1,2.3449092E-1,-2.2165833E-1,-1.8787044E-1,-2.0553134E-1,-1.3277029E-1],"categories":[],"categories_nodes":[],"categories_segments":[],"categories_sizes":[],"default_left":[1,1,1,1,1,1,1,1,1,1,0,1,1,1,1,0,0,0,0,0,0,1,1,1,1,1,1,1,1,1,1,1,1,1,1,1,1,1,1,1,1,1,1,1,1,0,0,0,0,0,0,0,0,0,0,0,0,0,0,0,0,0,0,0,0,0,0,0,0,0,0,0,0,0,0,0,0],"id":17,"left_children":[1,3,5,7,9,11,13,15,17,19,-1,21,23,25,27,-1,-1,-1,-1,-1,-1,29,31,33,35,37,39,41,43,45,47,49,51,53,55,57,59,61,63,65,67,69,71,73,75,-1,-1,-1,-1,-1,-1,-1,-1,-1,-1,-1,-1,-1,-1,-1,-1,-1,-1,-1,-1,-1,-1,-1,-1,-1,-1,-1,-1,-1,-1,-1,-1],"loss_changes":[2.128418E3,1.8308105E0,3.1198145E2,5.6811523E-1,1.0736084E-1,1.4973474E2,2.8852875E1,3.1555176E-1,1.4463806E-1,2.3498535E-3,0E0,9.002972E1,5.70105E0,2.8280563E0,2.7012634E0,0E0,0E0,0E0,0E0,0E0,0E0,5.5744957E1,7.8634415E1,2.2852936E0,5.1693993E0,2.9416485E0,1.2941704E0,4.3106842E-1,2.3480225E-1,4.6936142E1,3.22257E1,6.1884182E1,3.5917824E1,1.9152527E0,1.2961568E0,4.694188E0,2.0080788E0,1.0159487E1,3.6918836E0,3.9893723E-1,7.3983E-1,1.07551E0,2.9859543E-1,5.2726746E-2,5.8013916E-2,0E0,0E0,0E0,0E0,0E0,0E0,0E0,0E0,0E0,0E0,0E0,0E0,0E0,0E0,0E0,0E0,0E0,0E0,0E0,0E0,0E0,0E0,0E0,0E0,0E0,0E0,0E0,0E0,0E0,0E0,0E0,0E0],"parents":[2147483647,0,0,1,1,2,2,3,3,4,4,5,5,6,6,7,7,8,8,9,9,11,11,12,12,13,13,14,14,21,21,22,22,23,23,24,24,25,25,26,26,27,27,28,28,29,29,30,30,31,31,32,32,33,33,34,34,35,35,36,36,37,37,38,38,39,39,40,40,41,41,42,42,43,43,44,44],"right_children":[2,4,6,8,10,12,14,16,18,20,-1,22,24,26,28,-1,-1,-1,-1,-1,-1,30,32,34,36,38,40,42,44,46,48,50,52,54,56,58,60,62,64,66,68,70,72,74,76,-1,-1,-1,-1,-1,-1,-1,-1,-1,-1,-1,-1,-1,-1,-1,-1,-1,-1,-1,-1,-1,-1,-1,-1,-1,-1,-1,-1,-1,-1,-1,-1],"split_conditions":[1.5E0,9.2724866E-1,2.5E0,5E-1,5E-1,5E-1,5.5E0,5E-1,6.0555553E-1,5E-1,1.1333322E-2,5.954546E-1,5E-1,1.5E0,1.35E1,1.0591636E-2,1.2401415E-2,1.0912909E-2,1.1541839E-2,1.1889155E-2,1.2624986E-2,5.5E0,3.9444447E-1,4E0,5E-1,5E-1,1E0,1.5E0,3.15E1,5E-1,1E0,1.5E0,2.5E0,6.5076225E-2,3.2666665E-1,5.3571427E-1,4.5E0,5E-1,1.5E0,4.5E0,1.5E0,6.09756E-3,1.12E2,5E-1,4.5E0,-6.139497E-4,-3.9550248E-3,-9.488038E-3,1.0107019E-2,4.9066744E-3,4.1089338E-4,-1.8399054E-2,-4.373309E-3,9.22491E-3,6.8023126E-3,1.6386679E-3,-2.4676116E-2,-1.1941032E-2,6.397912E-3,-1.9222865E-3,-1.7632194E-2,-4.189835E-3,-1.436771E-2,9.002539E-3,-3.080899E-3,-5.1760785E-3,-6.770909E-3,-1.19251115E-2,-7.3233354E-3,-5.6943903E-3,-1.0160719E-2,-8.518385E-3,1.1724546E-2,-1.10829165E-2,-9.3935225E-3,-1.0276567E-2,-6.6385143E-3],"split_indices":[6,30,6,16,2,1,6,17,30,17,0,62,19,0,6,0,0,0,0,0,0,37,46,37,16,36,27,0,6,4,60,34,35,46,46,30,63,4,34,6,37,46,35,0,36,0,0,0,0,0,0,0,0,0,0,0,0,0,0,0,0,0,0,0,0,0,0,0,0,0,0,0,0,0,0,0,0],"split_type":[0,0,0,0,0,0,0,0,0,0,0,0,0,0,0,0,0,0,0,0,0,0,0,0,0,0,0,0,0,0,0,0,0,0,0,0,0,0,0,0,0,0,0,0,0,0,0,0,0,0,0,0,0,0,0,0,0,0,0,0,0,0,0,0,0,0,0,0,0,0,0,0,0,0,0,0,0],"sum_hessian":[2.15511E5,5.3073E4,1.62438E5,4.8755E4,4.318E3,1.46795E5,1.5643E4,4.3746E4,5.009E3,2.793E3,1.525E3,1.41155E5,5.64E3,7.088E3,8.555E3,4.347E4,2.76E2,2.839E3,2.17E3,2.484E3,3.09E2,5.5462E4,8.5693E4,4.874E3,7.66E2,4.018E3,3.07E3,2.716E3,5.839E3,5.209E4,3.372E3,8.3629E4,2.064E3,4.798E3,7.6E1,6.76E2,9E1,2.431E3,1.587E3,2.125E3,9.45E2,6.66E2,2.05E3,1.565E3,4.274E3,3.7482E4,1.4608E4,3.148E3,2.24E2,8.522E3,7.5107E4,6.81E2,1.383E3,3.734E3,1.064E3,7.2E1,4E0,3.6E1,6.4E2,6E1,3E1,2.155E3,2.76E2,6.5E1,1.522E3,1.583E3,5.42E2,1E2,8.45E2,4.74E2,1.92E2,2.049E3,1E0,8.1E1,1.484E3,4.256E3,1.8E1],"tree_param":{"num_deleted":"0","num_feature":"67","num_nodes":"77","size_leaf_vector":"0"}},{"base_weights":[3.925542E-2,4.986518E-2,-1.6316494E-1,8.6507924E-2,4.046805E-3,-1.3487054E-1,-1.8929456E-1,1.1901022E-1,4.7333376E-3,-7.957474E-3,1.311498E-1,-1.2153119E-1,-1.6115583E-1,-1.7495471E-1,-1.9394417E-1,1.5450013E-1,3.842649E-2,1.1824659E-2,-2.4663858E-1,5.8054756E-3,-6.54689E-2,1.5852155E-1,1.00462474E-1,-1.0686974E-1,-1.5427615E-1,-1.6255702E-1,3.6735438E-2,-1.7584638E-1,5.795056E-2,-1.9410011E-1,-8.791035E-2,1.665413E-1,-5.146352E-2,-1.6355356E-2,6.726941E-2,-1.0377647E-1,2.1052198E-2,-2.8695008E-1,2.9572358E-2,1.958782E-2,-6.413624E-2,-1.068568E-1,-4.032051E-2,1.9866307E-1,1.2052538E-1,3.652324E-2,1.243787E-1,-1.2420925E-1,-9.496759E-2,-2.3219956E-1,-1.4695989E-1,-1.6328761E-1,-5.438775E-3,-7.175009E-2,2.246623E-1,-1.7643721E-1,2.0857746E-2,-6.27853E-2,3.3081493E-1,-4.8846304E-3,-1.9414406E-1,-5.2469433E-3,-1.6926202E-1,1.7080967E-1,-2.4097389E-1,-1.0251699E-1,-2.3847116E-2,-3.90631E-3,-1.1751789E-1,1.6445616E-1,4.0741444E-2,5.36698E-2,-2.2309087E-1,5.7165686E-2,7.941755E-3,-3.0777672E-1,-5.0769992E-2,2.304683E-1,1.824256E-2,9.080921E-2,1.073761E-2,-4.7264054E-2,-1.4004593E-1,-1.3135312E-1,-4.0080104E-2,1.8501908E-2,-6.8074726E-2,2.0390262E-1,7.259957E-2,6.2336926E-3,1.7124873E-1,-1.6994786E-2,1.0029416E-1,1.4982072E-1,5.474257E-2,-1.16822235E-1,-1.6497461E-1,-7.672914E-2,-1.1485599E-1,-2.4267094E-1,1.4886977E-1,-2.0135875E-1,-1.3888666E-1,-1.6391465E-1,-9.161988E-3,-9.4927326E-2,3.552348E-1,-1.5826717E-1,7.596306E-2,3.3938253E-1,-1.17109284E-1,-1.7701986E-1,-1.0213619E-1,1.5335046E-1,-1.18587546E-1,-1.686543E-1,5.8455244E-3,-1.9424236E-1,-9.313562E-2,-9.120299E-2,3.9042816E-2],"categories":[],"categories_nodes":[],"categories_segments":[],"categories_sizes":[],"default_left":[1,1,1,1,1,1,1,1,1,1,1,1,1,1,1,1,1,1,1,1,1,1,1,1,1,1,1,1,1,1,1,1,1,1,1,1,1,1,1,1,1,1,1,1,1,1,1,1,1,1,1,1,1,1,1,1,1,1,0,0,1,1,0,0,0,0,0,0,0,0,0,0,0,0,0,0,0,0,0,0,0,0,0,0,0,0,0,0,0,0,0,0,0,0,0,0,0,0,0,0,0,0,0,0,0,0,0,0,0,0,0,0,0,0,0,0,0,0,0,0,0],"id":18,"left_children":[1,3,5,7,9,11,13,15,17,19,21,23,25,27,29,31,33,35,37,39,41,43,45,47,49,51,53,55,57,59,61,63,65,67,69,71,73,75,77,79,81,83,85,87,89,91,93,95,97,99,101,103,105,107,109,111,113,115,-1,-1,117,119,-1,-1,-1,-1,-1,-1,-1,-1,-1,-1,-1,-1,-1,-1,-1,-1,-1,-1,-1,-1,-1,-1,-1,-1,-1,-1,-1,-1,-1,-1,-1,-1,-1,-1,-1,-1,-1,-1,-1,-1,-1,-1,-1,-1,-1,-1,-1,-1,-1,-1,-1,-1,-1,-1,-1,-1,-1,-1,-1],"loss_changes":[4.6286563E2,3.4381882E2,7.9103394E0,3.0242944E2,1.3884853E2,1.7886047E0,3.3799744E-1,2.328595E2,5.7693665E1,6.581505E1,6.5803375E0,1.6278152E0,4.865036E-1,2.9595184E-1,5.24292E-2,1.402002E2,3.9340065E1,3.3579136E1,9.895901E0,6.467724E1,1.6707405E1,6.3042145E0,5.661087E0,4.7711182E-1,5.6847954E-1,1.9666672E-1,2.8115502E-1,1.6301346E-1,2.184374E-1,3.3935547E-2,5.2910335E-2,9.293713E1,4.400714E0,1.0815071E1,4.2043198E1,4.372608E1,1.3801493E1,3.7964745E0,2.552723E-1,3.5328705E1,1.41394005E1,9.920662E0,1.6309002E1,1.316803E0,1.2370281E1,3.4487267E0,4.768257E0,2.701168E-1,5.022793E-1,3.9126444E-1,3.9759254E-1,1.6404343E-1,3.242069E-1,1.2703985E-1,2.357854E-1,4.1095734E-2,1.10562876E-1,3.731525E-2,0E0,0E0,2.357483E-2,2.2595685E-2,0E0,0E0,0E0,0E0,0E0,0E0,0E0,0E0,0E0,0E0,0E0,0E0,0E0,0E0,0E0,0E0,0E0,0E0,0E0,0E0,0E0,0E0,0E0,0E0,0E0,0E0,0E0,0E0,0E0,0E0,0E0,0E0,0E0,0E0,0E0,0E0,0E0,0E0,0E0,0E0,0E0,0E0,0E0,0E0,0E0,0E0,0E0,0E0,0E0,0E0,0E0,0E0,0E0,0E0,0E0,0E0,0E0,0E0,0E0],"parents":[2147483647,0,0,1,1,2,2,3,3,4,4,5,5,6,6,7,7,8,8,9,9,10,10,11,11,12,12,13,13,14,14,15,15,16,16,17,17,18,18,19,19,20,20,21,21,22,22,23,23,24,24,25,25,26,26,27,27,28,28,29,29,30,30,31,31,32,32,33,33,34,34,35,35,36,36,37,37,38,38,39,39,40,40,41,41,42,42,43,43,44,44,45,45,46,46,47,47,48,48,49,49,50,50,51,51,52,52,53,53,54,54,55,55,56,56,57,57,60,60,61,61],"right_children":[2,4,6,8,10,12,14,16,18,20,22,24,26,28,30,32,34,36,38,40,42,44,46,48,50,52,54,56,58,60,62,64,66,68,70,72,74,76,78,80,82,84,86,88,90,92,94,96,98,100,102,104,106,108,110,112,114,116,-1,-1,118,120,-1,-1,-1,-1,-1,-1,-1,-1,-1,-1,-1,-1,-1,-1,-1,-1,-1,-1,-1,-1,-1,-1,-1,-1,-1,-1,-1,-1,-1,-1,-1,-1,-1,-1,-1,-1,-1,-1,-1,-1,-1,-1,-1,-1,-1,-1,-1,-1,-1,-1,-1,-1,-1,-1,-1,-1,-1,-1,-1],"split_conditions":[1.5E0,9.6362436E-1,2.85E1,5E-1,5E-1,3.5E0,5.6E1,5E-1,5.5E0,2.5E0,5E-1,1.5476191E-1,1.45E1,3.5555553E-1,5.2272725E-1,5E-1,3.5E0,1.5E0,1.6666666E-1,3.2216215E-1,4.5E0,5E-1,5E-1,2.5E0,1.5E0,5.2272725E-1,3.5E0,2.05E1,1.8333335E-1,5E-1,1.89E2,6.5E0,2.5E0,3.9607847E-1,6.0555553E-1,1.5E0,5.5E0,5E-1,4.5E0,1.5E0,4E0,1.35E1,1.0987805E0,5E-1,5E-1,2.3904759E-1,5.1956814E-2,1.0869565E-2,1.15E1,2.8333335E0,2.361111E-1,1.5E0,9E0,1.55E1,1.55E1,4.7727276E-2,9E0,3.2E1,1.6540747E-2,-2.4423152E-4,3.5E0,4.4E1,-8.463101E-3,8.540484E-3,-1.2048694E-2,-5.1258495E-3,-1.1923559E-3,-1.953155E-4,-5.8758943E-3,8.222808E-3,2.0370723E-3,2.68349E-3,-1.1154544E-2,2.8582844E-3,3.9708774E-4,-1.5388836E-2,-2.5384997E-3,1.1523415E-2,9.12128E-4,4.5404606E-3,5.368805E-4,-2.3632029E-3,-7.0022964E-3,-6.5676565E-3,-2.0040052E-3,9.250954E-4,-3.4037363E-3,1.0195131E-2,3.6299785E-3,3.1168465E-4,8.562437E-3,-8.497393E-4,5.014708E-3,7.491036E-3,2.7371286E-3,-5.8411118E-3,-8.248731E-3,-3.8364572E-3,-5.7427995E-3,-1.2133547E-2,7.4434886E-3,-1.0067938E-2,-6.944333E-3,-8.195733E-3,-4.580994E-4,-4.7463663E-3,1.776174E-2,-7.9133585E-3,3.798153E-3,1.6969128E-2,-5.8554644E-3,-8.850994E-3,-5.1068095E-3,7.667523E-3,-5.9293774E-3,-8.432715E-3,2.9227624E-4,-9.712118E-3,-4.656781E-3,-4.5601497E-3,1.9521408E-3],"split_indices":[0,30,32,0,2,0,32,16,37,61,0,26,0,8,39,19,3,64,58,46,3,16,1,3,37,7,3,35,40,64,32,37,3,46,30,34,32,16,3,34,37,64,30,19,1,7,46,40,32,30,26,49,3,0,0,9,0,3,0,0,16,0,0,0,0,0,0,0,0,0,0,0,0,0,0,0,0,0,0,0,0,0,0,0,0,0,0,0,0,0,0,0,0,0,0,0,0,0,0,0,0,0,0,0,0,0,0,0,0,0,0,0,0,0,0,0,0,0,0,0,0],"split_type":[0,0,0,0,0,0,0,0,0,0,0,0,0,0,0,0,0,0,0,0,0,0,0,0,0,0,0,0,0,0,0,0,0,0,0,0,0,0,0,0,0,0,0,0,0,0,0,0,0,0,0,0,0,0,0,0,0,0,0,0,0,0,0,0,0,0,0,0,0,0,0,0,0,0,0,0,0,0,0,0,0,0,0,0,0,0,0,0,0,0,0,0,0,0,0,0,0,0,0,0,0,0,0,0,0,0,0,0,0,0,0,0,0,0,0,0,0,0,0,0,0],"sum_hessian":[2.15519E5,2.04786E5,1.0733E4,1.13786E5,9.1E4,5.156E3,5.577E3,8.1423E4,3.2363E4,8.3148E4,7.852E3,3.424E3,1.732E3,1.375E3,4.202E3,5.6527E4,2.4896E4,3.1476E4,8.87E2,6.7093E4,1.6055E4,4.148E3,3.704E3,2.368E3,1.056E3,1.72E3,1.2E1,1.37E3,5E0,4.195E3,7E0,5.3405E4,3.122E3,8.587E3,1.6309E4,2.326E3,2.915E4,7.74E2,1.13E2,5.6049E4,1.1044E4,6.067E3,9.988E3,2.015E3,2.133E3,1.009E3,2.695E3,9.6E2,1.408E3,8.8E1,9.68E2,1.712E3,8E0,8E0,4E0,1.366E3,4E0,4E0,1E0,1E0,4.194E3,4E0,3E0,5.2852E4,5.53E2,1.095E3,2.027E3,7.647E3,9.4E2,3.496E3,1.2813E4,1.003E3,1.323E3,7.763E3,2.1387E4,7.11E2,6.3E1,5E0,1.08E2,6.194E3,4.9855E4,9.037E3,2.007E3,4.438E3,1.629E3,3.202E3,6.786E3,1.934E3,8.1E1,6.56E2,1.477E3,5.49E2,4.6E2,1.973E3,7.22E2,8.16E2,1.44E2,7.37E2,6.71E2,8.6E1,2E0,1.22E2,8.46E2,1.705E3,7E0,7E0,1E0,5E0,3E0,3E0,1E0,1.354E3,1.2E1,2E0,2E0,1E0,3E0,4.189E3,5E0,1E0,3E0],"tree_param":{"num_deleted":"0","num_feature":"67","num_nodes":"121","size_leaf_vector":"0"}},{"base_weights":[3.698203E-2,4.705178E-2,-1.5486614E-1,8.2151085E-2,3.1478296E-3,-1.2768684E-1,-1.8076402E-1,1.12729244E-1,5.2224486E-3,-8.585575E-3,1.2683322E-1,-1.0824335E-1,-1.446281E-1,-1.7085408E-1,-1.8545277E-1,1.4688829E-1,3.4669954E-2,-9.615114E-2,1.5542649E-2,4.8542777E-3,-6.449238E-2,1.511713E-1,9.963816E-2,-1.1113302E-1,2.6651738E-2,-1.469856E-1,-4.176905E-2,-1.6617158E-1,-1.8036193E-1,-4.7625154E-3,-1.8550016E-1,1.585219E-1,-5.5677045E-2,-1.6406862E-2,6.170699E-2,1.9112788E-2,-1.8543892E-1,-9.6892944E-4,5.008708E-2,-2.6595917E-2,2.4177788E-2,-2.8519146E-2,-1.164202E-1,1.8856916E-1,1.1597563E-1,3.463778E-2,1.2345969E-1,-1.03342675E-1,-1.549181E-1,-3.1071233E-2,4.0216672E-1,-1.3455664E-1,-1.632083E-1,-9.695284E-2,1.8217912E-1,-1.6696492E-1,-7.358598E-2,-1.8374555E-1,-1.2121776E-1,-1.856282E-1,-9.121409E-2,2.4011837E-2,1.6985002E-1,-1.0430641E-1,-2.9181752E-2,-4.0801242E-2,3.820289E-2,3.0159973E-2,1.4260957E-1,-6.686241E-2,3.4524253E-1,-3.089051E-1,-6.860965E-2,1.4386519E-2,-3.3001563E-1,1.5661837E-1,3.0868322E-2,-4.2624865E-2,1.8271878E-2,1.5646657E-2,8.243862E-2,-7.544045E-2,5.2042684E-4,-2.5921714E-1,-5.0022952E-2,1.9194506E-1,9.895686E-2,1.7642485E-2,1.5994084E-1,-1.2588445E-2,9.359255E-2,1.369253E-1,5.065789E-2,-9.067473E-2,-1.18049964E-1,-2.6996556E-1,-1.3757065E-1,-6.917126E-2,1.9108193E-1,-2.9988706E-2,4.7919074E-1,-1.5253879E-1,-1.192519E-1,-1.6521318E-1,1.5570049E-2,-1.68086E-1,-5.4350402E-2,-1.45326E-2,4.998244E-1,-1.6752946E-1,-4.754201E-2,-1.5288305E-1,3.1191608E-2,-1.841056E-1,-5.7807744E-2,2.1404034E-1,-1.4886016E-1,-1.8579784E-1,-1.3149785E-1],"categories":[],"categories_nodes":[],"categories_segments":[],"categories_sizes":[],"default_left":[1,1,1,1,1,1,1,1,1,1,1,1,1,1,1,1,1,1,1,1,1,1,1,1,1,1,1,1,1,0,1,1,1,1,1,1,1,1,1,1,1,1,1,1,1,1,1,1,1,1,1,1,1,1,1,1,1,1,1,1,0,0,0,0,0,0,0,0,0,0,0,0,0,0,0,0,0,0,0,0,0,0,0,0,0,0,0,0,0,0,0,0,0,0,0,0,0,0,0,0,0,0,0,0,0,0,0,0,0,0,0,0,0,0,0,0,0,0,0],"id":19,"left_children":[1,3,5,7,9,11,13,15,17,19,21,23,25,27,29,31,33,35,37,39,41,43,45,47,49,51,53,55,57,-1,59,61,63,65,67,69,71,73,75,77,79,81,83,85,87,89,91,93,95,97,99,101,103,105,107,109,111,113,115,117,-1,-1,-1,-1,-1,-1,-1,-1,-1,-1,-1,-1,-1,-1,-1,-1,-1,-1,-1,-1,-1,-1,-1,-1,-1,-1,-1,-1,-1,-1,-1,-1,-1,-1,-1,-1,-1,-1,-1,-1,-1,-1,-1,-1,-1,-1,-1,-1,-1,-1,-1,-1,-1,-1,-1,-1,-1,-1,-1],"loss_changes":[4.152652E2,3.1472238E2,7.522583E0,2.6698254E2,1.3168323E2,1.7084122E0,2.232666E-1,2.1654907E2,3.3775833E1,6.227163E1,5.1886063E0,9.5446587E-1,6.713791E-1,4.9053192E-2,3.0906677E-2,1.331383E2,3.4142628E1,3.0703566E1,1.6712843E1,4.0606E1,3.0000687E1,5.4365845E0,5.749611E0,7.9922295E-1,1.1396395E0,5.2869415E-1,8.085946E-1,7.600021E-2,9.2596054E-2,0E0,2.7885437E-2,8.14021E1,3.9512072E0,1.1402279E1,4.1255135E1,3.655799E1,2.4226334E1,1.0017878E2,1.939632E1,1.8288898E1,2.056932E1,1.2930874E1,6.2307777E1,5.8877563E-1,9.244579E0,2.7798204E0,2.658558E0,3.6787987E-1,6.793461E-1,4.025632E-1,2.4737477E-1,4.0893936E-1,4.2551804E-1,1.4844766E-1,8.195629E-1,7.2338104E-2,1.0447133E-1,1.3887405E-2,3.469515E-1,9.605408E-3,0E0,0E0,0E0,0E0,0E0,0E0,0E0,0E0,0E0,0E0,0E0,0E0,0E0,0E0,0E0,0E0,0E0,0E0,0E0,0E0,0E0,0E0,0E0,0E0,0E0,0E0,0E0,0E0,0E0,0E0,0E0,0E0,0E0,0E0,0E0,0E0,0E0,0E0,0E0,0E0,0E0,0E0,0E0,0E0,0E0,0E0,0E0,0E0,0E0,0E0,0E0,0E0,0E0,0E0,0E0,0E0,0E0,0E0,0E0],"parents":[2147483647,0,0,1,1,2,2,3,3,4,4,5,5,6,6,7,7,8,8,9,9,10,10,11,11,12,12,13,13,14,14,15,15,16,16,17,17,18,18,19,19,20,20,21,21,22,22,23,23,24,24,25,25,26,26,27,27,28,28,30,30,31,31,32,32,33,33,34,34,35,35,36,36,37,37,38,38,39,39,40,40,41,41,42,42,43,43,44,44,45,45,46,46,47,47,48,48,49,49,50,50,51,51,52,52,53,53,54,54,55,55,56,56,57,57,58,58,59,59],"right_children":[2,4,6,8,10,12,14,16,18,20,22,24,26,28,30,32,34,36,38,40,42,44,46,48,50,52,54,56,58,-1,60,62,64,66,68,70,72,74,76,78,80,82,84,86,88,90,92,94,96,98,100,102,104,106,108,110,112,114,116,118,-1,-1,-1,-1,-1,-1,-1,-1,-1,-1,-1,-1,-1,-1,-1,-1,-1,-1,-1,-1,-1,-1,-1,-1,-1,-1,-1,-1,-1,-1,-1,-1,-1,-1,-1,-1,-1,-1,-1,-1,-1,-1,-1,-1,-1,-1,-1,-1,-1,-1,-1,-1,-1,-1,-1,-1,-1,-1,-1],"split_conditions":[1.5E0,9.801024E-1,2.95E1,5E-1,5E-1,1.25E1,6.95E1,5E-1,2.5E0,2.5E0,5E-1,2.25E-1,1.15E1,4.5E0,5E-1,5E-1,3.5E0,1.5E0,5E-1,6.5E0,5E-1,5E-1,5E-1,7.5E0,1.993464E-1,1.5E0,2.8991595E-1,3.15E1,1.7142856E-1,-2.3812578E-4,2.513369E-1,1.5E0,2.5E0,5E-1,1.9615385E-1,5E-1,5E-1,5E-1,2.5E0,5E-1,3.5E0,7.142855E-3,5E-1,5E-1,5E-1,2.3904759E-1,5E-1,9.5E0,9.5E0,4.5E0,2.5E0,1.2310605E-1,1.45E1,6.0661763E-2,2.631579E-2,8.585527E-1,1.5E0,1.35E1,1.5E0,4.5E0,-4.560705E-3,1.2005919E-3,8.492501E-3,-5.2153203E-3,-1.4590876E-3,-2.040062E-3,1.9101445E-3,1.5079987E-3,7.1304785E-3,-3.3431207E-3,1.7262127E-2,-1.5445255E-2,-3.4304825E-3,7.1932597E-4,-1.6500782E-2,7.830919E-3,1.5434161E-3,-2.1312432E-3,9.135939E-4,7.8233285E-4,4.121931E-3,-3.7720227E-3,2.6021342E-5,-1.2960858E-2,-2.5011476E-3,9.597253E-3,4.947843E-3,8.8212424E-4,7.9970425E-3,-6.2942225E-4,4.6796273E-3,6.846265E-3,2.5328945E-3,-4.5337365E-3,-5.9024985E-3,-1.3498278E-2,-6.8785325E-3,-3.458563E-3,9.5540965E-3,-1.4994353E-3,2.3959538E-2,-7.6269396E-3,-5.962595E-3,-8.260659E-3,7.785025E-4,-8.404301E-3,-2.71752E-3,-7.2663E-4,2.499122E-2,-8.376474E-3,-2.3771005E-3,-7.6441527E-3,1.5595804E-3,-9.205281E-3,-2.8903873E-3,1.0702017E-2,-7.443008E-3,-9.289892E-3,-6.5748924E-3],